{"learner":{"attributes":{"best_iteration":"231","best_score":"0.3526625654696552","scikit_learn":"{\"_estimator_type\": \"classifier\"}"},"feature_names":["anos_desde_inicio","deficit_lluvia","entidad_tiene_presa","estacion","indice_aridez_lag_1","indice_aridez_lag_3","indice_aridez_lag_6","lluvias_lag_1","lluvias_lag_3","lluvias_lag_6","lluvias_rolling_mean_3","lluvias_rolling_mean_6","mes_cos","mes_sin","municipio_tiene_presa","pob_promedio_entidad","pob_relativa_max_entidad","pob_total","proporcion_presas_entidad","rango_termico_lag_1","rango_termico_lag_3","rango_termico_lag_6","sequia_num_lag_1","sequia_num_lag_3","sequia_num_lag_6","temp_promedio_rolling_mean_3","temp_promedio_rolling_mean_6","temperaturamax_lag_1","temperaturamax_lag_3","temperaturamax_lag_6","temperaturamin_lag_1","temperaturamin_lag_3","temperaturamin_lag_6","temporada_lluvias"],"feature_types":["int","float","int","int","float","float","float","float","float","float","float","float","float","float","int","float","float","float","float","float","float","float","float","float","float","float","float","float","float","float","float","float","float","int"],"gradient_booster":{"model":{"cats":{"enc":[],"feature_segments":[],"sorted_idx":[]},"gbtree_model_param":{"num_parallel_tree":"1","num_trees":"1692"},"iteration_indptr":[0,6,12,18,24,30,36,42,48,54,60,66,72,78,84,90,96,102,108,114,120,126,132,138,144,150,156,162,168,174,180,186,192,198,204,210,216,222,228,234,240,246,252,258,264,270,276,282,288,294,300,306,312,318,324,330,336,342,348,354,360,366,372,378,384,390,396,402,408,414,420,426,432,438,444,450,456,462,468,474,480,486,492,498,504,510,516,522,528,534,540,546,552,558,564,570,576,582,588,594,600,606,612,618,624,630,636,642,648,654,660,666,672,678,684,690,696,702,708,714,720,726,732,738,744,750,756,762,768,774,780,786,792,798,804,810,816,822,828,834,840,846,852,858,864,870,876,882,888,894,900,906,912,918,924,930,936,942,948,954,960,966,972,978,984,990,996,1002,1008,1014,1020,1026,1032,1038,1044,1050,1056,1062,1068,1074,1080,1086,1092,1098,1104,1110,1116,1122,1128,1134,1140,1146,1152,1158,1164,1170,1176,1182,1188,1194,1200,1206,1212,1218,1224,1230,1236,1242,1248,1254,1260,1266,1272,1278,1284,1290,1296,1302,1308,1314,1320,1326,1332,1338,1344,1350,1356,1362,1368,1374,1380,1386,1392,1398,1404,1410,1416,1422,1428,1434,1440,1446,1452,1458,1464,1470,1476,1482,1488,1494,1500,1506,1512,1518,1524,1530,1536,1542,1548,1554,1560,1566,1572,1578,1584,1590,1596,1602,1608,1614,1620,1626,1632,1638,1644,1650,1656,1662,1668,1674,1680,1686,1692],"tree_info":[0,1,2,3,4,5,0,1,2,3,4,5,0,1,2,3,4,5,0,1,2,3,4,5,0,1,2,3,4,5,0,1,2,3,4,5,0,1,2,3,4,5,0,1,2,3,4,5,0,1,2,3,4,5,0,1,2,3,4,5,0,1,2,3,4,5,0,1,2,3,4,5,0,1,2,3,4,5,0,1,2,3,4,5,0,1,2,3,4,5,0,1,2,3,4,5,0,1,2,3,4,5,0,1,2,3,4,5,0,1,2,3,4,5,0,1,2,3,4,5,0,1,2,3,4,5,0,1,2,3,4,5,0,1,2,3,4,5,0,1,2,3,4,5,0,1,2,3,4,5,0,1,2,3,4,5,0,1,2,3,4,5,0,1,2,3,4,5,0,1,2,3,4,5,0,1,2,3,4,5,0,1,2,3,4,5,0,1,2,3,4,5,0,1,2,3,4,5,0,1,2,3,4,5,0,1,2,3,4,5,0,1,2,3,4,5,0,1,2,3,4,5,0,1,2,3,4,5,0,1,2,3,4,5,0,1,2,3,4,5,0,1,2,3,4,5,0,1,2,3,4,5,0,1,2,3,4,5,0,1,2,3,4,5,0,1,2,3,4,5,0,1,2,3,4,5,0,1,2,3,4,5,0,1,2,3,4,5,0,1,2,3,4,5,0,1,2,3,4,5,0,1,2,3,4,5,0,1,2,3,4,5,0,1,2,3,4,5,0,1,2,3,4,5,0,1,2,3,4,5,0,1,2,3,4,5,0,1,2,3,4,5,0,1,2,3,4,5,0,1,2,3,4,5,0,1,2,3,4,5,0,1,2,3,4,5,0,1,2,3,4,5,0,1,2,3,4,5,0,1,2,3,4,5,0,1,2,3,4,5,0,1,2,3,4,5,0,1,2,3,4,5,0,1,2,3,4,5,0,1,2,3,4,5,0,1,2,3,4,5,0,1,2,3,4,5,0,1,2,3,4,5,0,1,2,3,4,5,0,1,2,3,4,5,0,1,2,3,4,5,0,1,2,3,4,5,0,1,2,3,4,5,0,1,2,3,4,5,0,1,2,3,4,5,0,1,2,3,4,5,0,1,2,3,4,5,0,1,2,3,4,5,0,1,2,3,4,5,0,1,2,3,4,5,0,1,2,3,4,5,0,1,2,3,4,5,0,1,2,3,4,5,0,1,2,3,4,5,0,1,2,3,4,5,0,1,2,3,4,5,0,1,2,3,4,5,0,1,2,3,4,5,0,1,2,3,4,5,0,1,2,3,4,5,0,1,2,3,4,5,0,1,2,3,4,5,0,1,2,3,4,5,0,1,2,3,4,5,0,1,2,3,4,5,0,1,2,3,4,5,0,1,2,3,4,5,0,1,2,3,4,5,0,1,2,3,4,5,0,1,2,3,4,5,0,1,2,3,4,5,0,1,2,3,4,5,0,1,2,3,4,5,0,1,2,3,4,5,0,1,2,3,4,5,0,1,2,3,4,5,0,1,2,3,4,5,0,1,2,3,4,5,0,1,2,3,4,5,0,1,2,3,4,5,0,1,2,3,4,5,0,1,2,3,4,5,0,1,2,3,4,5,0,1,2,3,4,5,0,1,2,3,4,5,0,1,2,3,4,5,0,1,2,3,4,5,0,1,2,3,4,5,0,1,2,3,4,5,0,1,2,3,4,5,0,1,2,3,4,5,0,1,2,3,4,5,0,1,2,3,4,5,0,1,2,3,4,5,0,1,2,3,4,5,0,1,2,3,4,5,0,1,2,3,4,5,0,1,2,3,4,5,0,1,2,3,4,5,0,1,2,3,4,5,0,1,2,3,4,5,0,1,2,3,4,5,0,1,2,3,4,5,0,1,2,3,4,5,0,1,2,3,4,5,0,1,2,3,4,5,0,1,2,3,4,5,0,1,2,3,4,5,0,1,2,3,4,5,0,1,2,3,4,5,0,1,2,3,4,5,0,1,2,3,4,5,0,1,2,3,4,5,0,1,2,3,4,5,0,1,2,3,4,5,0,1,2,3,4,5,0,1,2,3,4,5,0,1,2,3,4,5,0,1,2,3,4,5,0,1,2,3,4,5,0,1,2,3,4,5,0,1,2,3,4,5,0,1,2,3,4,5,0,1,2,3,4,5,0,1,2,3,4,5,0,1,2,3,4,5,0,1,2,3,4,5,0,1,2,3,4,5,0,1,2,3,4,5,0,1,2,3,4,5,0,1,2,3,4,5,0,1,2,3,4,5,0,1,2,3,4,5,0,1,2,3,4,5,0,1,2,3,4,5,0,1,2,3,4,5,0,1,2,3,4,5,0,1,2,3,4,5,0,1,2,3,4,5,0,1,2,3,4,5,0,1,2,3,4,5,0,1,2,3,4,5,0,1,2,3,4,5,0,1,2,3,4,5,0,1,2,3,4,5,0,1,2,3,4,5,0,1,2,3,4,5,0,1,2,3,4,5,0,1,2,3,4,5,0,1,2,3,4,5,0,1,2,3,4,5,0,1,2,3,4,5,0,1,2,3,4,5,0,1,2,3,4,5,0,1,2,3,4,5,0,1,2,3,4,5,0,1,2,3,4,5,0,1,2,3,4,5,0,1,2,3,4,5,0,1,2,3,4,5,0,1,2,3,4,5,0,1,2,3,4,5,0,1,2,3,4,5,0,1,2,3,4,5,0,1,2,3,4,5,0,1,2,3,4,5,0,1,2,3,4,5,0,1,2,3,4,5,0,1,2,3,4,5,0,1,2,3,4,5,0,1,2,3,4,5,0,1,2,3,4,5,0,1,2,3,4,5,0,1,2,3,4,5,0,1,2,3,4,5,0,1,2,3,4,5,0,1,2,3,4,5,0,1,2,3,4,5,0,1,2,3,4,5,0,1,2,3,4,5,0,1,2,3,4,5,0,1,2,3,4,5,0,1,2,3,4,5,0,1,2,3,4,5,0,1,2,3,4,5,0,1,2,3,4,5,0,1,2,3,4,5,0,1,2,3,4,5,0,1,2,3,4,5,0,1,2,3,4,5,0,1,2,3,4,5,0,1,2,3,4,5,0,1,2,3,4,5,0,1,2,3,4,5,0,1,2,3,4,5,0,1,2,3,4,5,0,1,2,3,4,5,0,1,2,3,4,5,0,1,2,3,4,5,0,1,2,3,4,5,0,1,2,3,4,5,0,1,2,3,4,5,0,1,2,3,4,5,0,1,2,3,4,5,0,1,2,3,4,5,0,1,2,3,4,5,0,1,2,3,4,5,0,1,2,3,4,5,0,1,2,3,4,5,0,1,2,3,4,5,0,1,2,3,4,5,0,1,2,3,4,5,0,1,2,3,4,5,0,1,2,3,4,5,0,1,2,3,4,5,0,1,2,3,4,5,0,1,2,3,4,5,0,1,2,3,4,5,0,1,2,3,4,5,0,1,2,3,4,5,0,1,2,3,4,5,0,1,2,3,4,5,0,1,2,3,4,5,0,1,2,3,4,5,0,1,2,3,4,5,0,1,2,3,4,5,0,1,2,3,4,5,0,1,2,3,4,5,0,1,2,3,4,5,0,1,2,3,4,5,0,1,2,3,4,5,0,1,2,3,4,5,0,1,2,3,4,5,0,1,2,3,4,5,0,1,2,3,4,5,0,1,2,3,4,5,0,1,2,3,4,5,0,1,2,3,4,5,0,1,2,3,4,5,0,1,2,3,4,5,0,1,2,3,4,5,0,1,2,3,4,5,0,1,2,3,4,5,0,1,2,3,4,5,0,1,2,3,4,5,0,1,2,3,4,5,0,1,2,3,4,5,0,1,2,3,4,5],"trees":[{"base_weights":[-6.7511075E-3,2.242351E0,-5.4584444E-1,1.9667337E0,2.512203E0,-4.028421E-1,-5.846698E-1,1.694667E0,2.3154016E0,2.5650887E0,1.864192E0,-2.075808E-1,-4.925523E-1,-5.3834546E-1,-5.9293807E-1,5.4515988E-2,7.738763E-2,8.887452E-2,8.073722E-3,9.808665E-2,4.4914998E-2,5.9640266E-2,9.3443125E-2,-1.1175007E-2,1.5627706E-2,-1.9908568E-2,-1.5416925E-2,-1.8244514E-2,-2.2014206E-2,-2.2529751E-2,1.2495264E-2],"categories":[],"categories_nodes":[],"categories_segments":[],"categories_sizes":[],"default_left":[0,0,0,0,0,0,0,0,0,0,0,0,0,0,0,0,0,0,0,0,0,0,0,0,0,0,0,0,0,0,0],"id":0,"left_children":[1,3,5,7,9,11,13,15,17,19,21,23,25,27,29,-1,-1,-1,-1,-1,-1,-1,-1,-1,-1,-1,-1,-1,-1,-1,-1],"loss_changes":[1.1337542E6,1.34454375E4,4.1877656E3,8.483594E3,3.12925E3,2.8212637E3,2.27125E2,4.4661094E3,2.0120625E3,2.0135625E3,1.2068125E3,2.718842E3,3.0201953E2,2.1482422E2,9.5484375E1,0E0,0E0,0E0,0E0,0E0,0E0,0E0,0E0,0E0,0E0,0E0,0E0,0E0,0E0,0E0,0E0],"parents":[2147483647,0,0,1,1,2,2,3,3,4,4,5,5,6,6,7,7,8,8,9,9,10,10,11,11,12,12,13,13,14,14],"right_children":[2,4,6,8,10,12,14,16,18,20,22,24,26,28,30,-1,-1,-1,-1,-1,-1,-1,-1,-1,-1,-1,-1,-1,-1,-1,-1],"split_conditions":[0E0,1.04E-1,1E0,-2.2444444E0,1.68E1,7.8947365E-2,7.8947365E-2,5E-1,2E0,1.71E1,1.7922222E1,2.7643171E1,4.080831E0,2E0,1.5185556E2,5.4515988E-2,7.738763E-2,8.887452E-2,8.073722E-3,9.808665E-2,4.4914998E-2,5.9640266E-2,9.3443125E-2,-1.1175007E-2,1.5627706E-2,-1.9908568E-2,-1.5416925E-2,-1.8244514E-2,-2.2014206E-2,-2.2529751E-2,1.2495264E-2],"split_indices":[23,18,23,1,32,18,18,12,24,30,1,1,1,23,1,0,0,0,0,0,0,0,0,0,0,0,0,0,0,0,0],"split_type":[0,0,0,0,0,0,0,0,0,0,0,0,0,0,0,0,0,0,0,0,0,0,0,0,0,0,0,0,0,0,0],"sum_hessian":[9.3507306E5,1.8079477E5,7.542783E5,8.944313E4,9.135164E4,1.6106064E5,5.932176E5,5.0241336E4,3.9201797E4,8.445796E4,6.8936807E3,5.0702855E4,1.103578E5,8.984759E4,5.0337006E5,2.8597078E4,2.1644258E4,3.8751945E4,4.4985303E2,8.34169E4,1.0410598E3,4.616697E3,2.276984E3,4.4478645E4,6.2242114E3,8.088208E4,2.9475717E4,3.732323E4,5.252436E4,5.0325794E5,1.1213301E2],"tree_param":{"num_deleted":"0","num_feature":"34","num_nodes":"31","size_leaf_vector":"1"}},{"base_weights":[-2.8705487E-3,1.062229E0,-5.7644606E-1,-3.6305508E-1,2.5730367E0,-5.220673E-1,-5.955113E-1,-2.4966347E-1,-4.6888915E-1,5.4094803E-1,2.596783E0,-4.2089772E-1,-5.5625427E-1,-5.8824646E-1,-5.994058E-1,-5.084317E-3,-1.4196651E-2,-1.8605271E-2,-1.4877877E-2,6.061418E-2,1.49357235E-2,9.0780824E-2,1.0408747E-1,-1.7257478E-2,-1.2193549E-2,-2.1416705E-2,-1.823805E-2,-2.1616085E-2,-2.2518195E-2,-2.2025181E-2,-2.2771243E-2],"categories":[],"categories_nodes":[],"categories_segments":[],"categories_sizes":[],"default_left":[0,0,0,0,0,0,0,0,0,0,0,0,0,0,0,0,0,0,0,0,0,0,0,0,0,0,0,0,0,0,0],"id":1,"left_children":[1,3,5,7,9,11,13,15,17,19,21,23,25,27,29,-1,-1,-1,-1,-1,-1,-1,-1,-1,-1,-1,-1,-1,-1,-1,-1],"loss_changes":[5.690583E5,7.0207675E5,6.2759375E2,2.0133203E3,7.6369375E3,5.4352734E2,1.2578125E1,1.1639487E3,1.4018164E2,2.8476904E2,4.64175E3,1.325498E2,6.773828E1,1.3671875E1,4.453125E-1,0E0,0E0,0E0,0E0,0E0,0E0,0E0,0E0,0E0,0E0,0E0,0E0,0E0,0E0,0E0,0E0],"parents":[2147483647,0,0,1,1,2,2,3,3,4,4,5,5,6,6,7,7,8,8,9,9,10,10,11,11,12,12,13,13,14,14],"right_children":[2,4,6,8,10,12,14,16,18,20,22,24,26,28,30,-1,-1,-1,-1,-1,-1,-1,-1,-1,-1,-1,-1,-1,-1,-1,-1],"split_conditions":[1E0,0E0,2E0,1.04E-1,1E0,9.7222224E-2,3E0,-2.5944445E0,1.3E1,3E0,1.04E-1,3.6222222E0,1.79E1,9.7222224E-2,1E0,-5.084317E-3,-1.4196651E-2,-1.8605271E-2,-1.4877877E-2,6.061418E-2,1.49357235E-2,9.0780824E-2,1.0408747E-1,-1.7257478E-2,-1.2193549E-2,-2.1416705E-2,-1.823805E-2,-2.1616085E-2,-2.2518195E-2,-2.2025181E-2,-2.2771243E-2],"split_indices":[22,22,22,18,2,18,22,1,0,0,18,1,31,18,2,0,0,0,0,0,0,0,0,0,0,0,0,0,0,0,0],"split_type":[0,0,0,0,0,0,0,0,0,0,0,0,0,0,0,0,0,0,0,0,0,0,0,0,0,0,0,0,0,0,0],"sum_hessian":[9.314847E5,3.2604184E5,6.054428E5,1.6776958E5,1.5827228E5,1.5716816E5,4.482747E5,8.099342E4,8.677615E4,1.8282292E3,1.5644406E5,3.969687E4,1.1747128E5,1.564594E5,2.9181528E5,4.189567E4,3.909775E4,6.826316E4,1.8512992E4,2.2424577E2,1.6039835E3,6.4102938E4,9.234112E4,2.9738402E4,9.958467E3,1.06820734E5,1.0650551E4,3.0264326E4,1.2619508E5,1.4292246E3,2.9038606E5],"tree_param":{"num_deleted":"0","num_feature":"34","num_nodes":"31","size_leaf_vector":"1"}},{"base_weights":[2.687124E-3,5.3937715E-1,-5.7618946E-1,-4.699153E-1,2.6348345E0,-5.436579E-1,-5.936492E-1,2.3117512E-2,-4.7557372E-1,7.6365083E-1,2.6528094E0,-5.577252E-1,-4.6958286E-1,-4.7369432E-1,-5.9428036E-1,-7.449285E-3,9.604771E-3,-1.9916566E-2,-1.609801E-2,1.1907179E-2,4.357409E-2,1.0299063E-1,8.7864526E-2,-2.127192E-2,-5.314973E-3,1.6225865E-2,-1.807263E-2,5.9048096E-3,-2.18402E-2,-2.2597041E-2,-2.0146912E-2],"categories":[],"categories_nodes":[],"categories_segments":[],"categories_sizes":[],"default_left":[0,0,0,0,0,0,0,0,0,0,0,0,0,0,0,0,0,0,0,0,0,0,0,0,0,0,0,0,0,0,0],"id":2,"left_children":[1,3,5,7,9,11,13,15,17,19,21,23,25,27,29,-1,-1,-1,-1,-1,-1,-1,-1,-1,-1,-1,-1,-1,-1,-1,-1],"loss_changes":[2.8681534E5,1.0131631E6,2.5217188E2,9.020078E2,5.23725E3,1.6157031E2,2.1804688E1,1.84812E2,8.06875E2,2.5579279E2,3.06975E3,1.2542969E2,1.3810547E2,9.652716E1,1.15625E1,0E0,0E0,0E0,0E0,0E0,0E0,0E0,0E0,0E0,0E0,0E0,0E0,0E0,0E0,0E0,0E0],"parents":[2147483647,0,0,1,1,2,2,3,3,4,4,5,5,6,6,7,7,8,8,9,9,10,10,11,11,12,12,13,13,14,14],"right_children":[2,4,6,8,10,12,14,16,18,20,22,24,26,28,30,-1,-1,-1,-1,-1,-1,-1,-1,-1,-1,-1,-1,-1,-1,-1,-1],"split_conditions":[2E0,1E0,3E0,1E0,1E0,1.8E1,1E0,0E0,0E0,-2.4227777E1,1.84E1,8.501667E1,9.7E0,3.06E1,5.92E1,-7.449285E-3,9.604771E-3,-1.9916566E-2,-1.609801E-2,1.1907179E-2,4.357409E-2,1.0299063E-1,8.7864526E-2,-2.127192E-2,-5.314973E-3,1.6225865E-2,-1.807263E-2,5.9048096E-3,-2.18402E-2,-2.2597041E-2,-2.0146912E-2],"split_indices":[22,22,22,2,2,31,2,22,22,1,31,1,20,29,1,0,0,0,0,0,0,0,0,0,0,0,0,0,0,0,0],"split_type":[0,0,0,0,0,0,0,0,0,0,0,0,0,0,0,0,0,0,0,0,0,0,0,0,0,0,0,0,0,0,0],"sum_hessian":[9.231932E5,4.7905247E5,4.4414072E5,3.233222E5,1.5573028E5,1.5512186E5,2.8901888E5,3.6685835E3,3.196536E5,1.4818518E3,1.5424842E5,1.3036322E5,2.4758639E4,1.5139327E3,2.8750494E5,1.8772623E3,1.7913213E3,1.645744E5,1.550792E5,6.819427E2,7.999092E2,1.3153397E5,2.2714451E4,1.2964835E5,7.1486566E2,1.7034387E2,2.4588295E4,2.0992494E2,1.3040078E3,2.846732E5,2.831749E3],"tree_param":{"num_deleted":"0","num_feature":"34","num_nodes":"31","size_leaf_vector":"1"}},{"base_weights":[2.958194E-3,-5.1151395E-1,5.565822E-1,-5.4975694E-1,-4.2770088E-1,2.652689E0,-5.63901E-1,-9.444027E-2,-5.554393E-1,-2.959177E-1,-4.8016658E-1,4.0920946E-1,2.6850293E0,-1.5253209E-1,-5.66842E-1,-8.693381E-3,3.0899115E-2,-2.1247292E-2,-1.1006203E-4,1.639405E-2,-1.1988702E-2,-1.2133051E-2,-1.8935217E-2,-1.5472063E-2,4.9036834E-2,9.386187E-2,1.08467735E-1,-1.7357314E-2,1.5824659E-2,-5.1492397E-3,-2.1607209E-2],"categories":[],"categories_nodes":[],"categories_segments":[],"categories_sizes":[],"default_left":[0,0,0,0,0,0,0,0,0,0,0,0,0,0,0,0,0,0,0,0,0,0,0,0,0,0,0,0,0,0,0],"id":3,"left_children":[1,3,5,7,9,11,13,15,17,19,21,23,25,27,29,-1,-1,-1,-1,-1,-1,-1,-1,-1,-1,-1,-1,-1,-1,-1,-1],"loss_changes":[2.633527E5,1.5360625E3,1.0459993E6,8.514297E2,1.0381992E3,1.1255875E4,3.5110156E2,4.952015E2,7.077578E2,6.1321313E2,3.166289E2,1.5877444E3,5.57975E3,3.570865E2,2.5023438E2,0E0,0E0,0E0,0E0,0E0,0E0,0E0,0E0,0E0,0E0,0E0,0E0,0E0,0E0,0E0,0E0],"parents":[2147483647,0,0,1,1,2,2,3,3,4,4,5,5,6,6,7,7,8,8,9,9,10,10,11,11,12,12,13,13,14,14],"right_children":[2,4,6,8,10,12,14,16,18,20,22,24,26,28,30,-1,-1,-1,-1,-1,-1,-1,-1,-1,-1,-1,-1,-1,-1,-1,-1],"split_conditions":[2E0,1E0,3E0,1E0,9.876543E-2,1E0,1.08E1,1E0,2E0,1E0,4.3333334E-1,-5E-1,1.7699115E-1,2.009E2,1E0,-8.693381E-3,3.0899115E-2,-2.1247292E-2,-1.1006203E-4,1.639405E-2,-1.1988702E-2,-1.2133051E-2,-1.8935217E-2,-1.5472063E-2,4.9036834E-2,9.386187E-2,1.08467735E-1,-1.7357314E-2,1.5824659E-2,-5.1492397E-3,-2.1607209E-2],"split_indices":[22,23,22,2,18,2,20,13,24,2,11,13,18,7,2,0,0,0,0,0,0,0,0,0,0,0,0,0,0,0,0],"split_type":[0,0,0,0,0,0,0,0,0,0,0,0,0,0,0,0,0,0,0,0,0,0,0,0,0,0,0,0,0,0,0],"sum_hessian":[9.2461444E5,4.7925347E5,4.45361E5,3.2909128E5,1.5016217E5,1.5513917E5,2.902218E5,4.056515E3,3.2503478E5,4.2759902E4,1.0740227E5,2.2046404E3,1.5293453E5,2.0602659E3,2.8816156E5,3.5335383E3,5.2297656E2,3.2273297E5,2.301809E3,1.1277517E3,4.1632152E4,1.100175E4,9.640052E4,1.1447485E3,1.0598918E3,6.785847E4,8.5076055E4,1.3423204E3,7.179455E2,1.3393217E3,2.8682225E5],"tree_param":{"num_deleted":"0","num_feature":"34","num_nodes":"31","size_leaf_vector":"1"}},{"base_weights":[3.0495406E-3,-5.0696284E-1,1.1226845E0,-5.470686E-1,-3.83347E-1,2.65315E0,-5.6371844E-1,-5.496918E-1,3.0773675E-2,-1.4998369E-1,-4.6773654E-1,2.7681124E0,2.25573E0,6.76013E-1,-5.657678E-1,-9.908369E-3,-2.0997114E-2,1.1808826E-2,-1.464838E-2,2.2439832E-2,-7.2590928E-3,-2.0091897E-2,-1.2635043E-2,1.06088474E-1,6.5698385E-2,6.455562E-2,9.13547E-2,-2.2723196E-2,9.741314E-2,4.4506077E-2,-2.1529224E-2],"categories":[],"categories_nodes":[],"categories_segments":[],"categories_sizes":[],"default_left":[0,0,0,0,0,0,0,0,0,0,0,0,0,0,0,0,0,0,0,0,0,0,0,0,0,0,0,0,0,0,0],"id":4,"left_children":[1,3,5,7,9,11,13,15,17,19,21,23,25,27,29,-1,-1,-1,-1,-1,-1,-1,-1,-1,-1,-1,-1,-1,-1,-1,-1],"loss_changes":[5.2773975E5,3.1478906E3,7.4650906E5,7.267031E2,3.0631465E3,6.92575E3,3.4972266E2,4.275625E2,2.5279428E2,1.2585562E3,9.4477734E2,3.0386875E3,2.8252969E3,5.472776E2,2.4719531E2,0E0,0E0,0E0,0E0,0E0,0E0,0E0,0E0,0E0,0E0,0E0,0E0,0E0,0E0,0E0,0E0],"parents":[2147483647,0,0,1,1,2,2,3,3,4,4,5,5,6,6,7,7,8,8,9,9,10,10,11,11,12,12,13,13,14,14],"right_children":[2,4,6,8,10,12,14,16,18,20,22,24,26,28,30,-1,-1,-1,-1,-1,-1,-1,-1,-1,-1,-1,-1,-1,-1,-1,-1],"split_conditions":[3E0,2E0,4E0,3E0,9.876543E-2,3.3E1,1E0,1E0,1.04E-1,1E0,6.3446133E4,2E1,1.48E1,-2.6322222E1,9.9E0,-9.908369E-3,-2.0997114E-2,1.1808826E-2,-1.464838E-2,2.2439832E-2,-7.2590928E-3,-2.0091897E-2,-1.2635043E-2,1.06088474E-1,6.5698385E-2,6.455562E-2,9.13547E-2,-2.2723196E-2,9.741314E-2,4.4506077E-2,-2.1529224E-2],"split_indices":[22,22,22,24,18,27,2,2,18,2,15,6,30,1,20,0,0,0,0,0,0,0,0,0,0,0,0,0,0,0,0],"split_type":[0,0,0,0,0,0,0,0,0,0,0,0,0,0,0,0,0,0,0,0,0,0,0,0,0,0,0,0,0,0,0],"sum_hessian":[9.241926E5,6.3495856E5,2.8923403E5,4.794163E5,1.5554223E5,1.5162723E5,1.3760681E5,4.7724975E5,2.1665713E3,4.1309477E4,1.1423276E5,1.1760559E5,3.4021633E4,2.269417E2,1.3737988E5,5.071257E3,4.721785E5,1.2953147E3,8.7125653E2,2.1726824E3,3.9136797E4,7.860651E4,3.5626254E4,1.1485204E5,2.7535564E3,7.203786E3,2.6817846E4,1.3562852E2,9.131317E1,8.1578926E1,1.372983E5],"tree_param":{"num_deleted":"0","num_feature":"34","num_nodes":"31","size_leaf_vector":"1"}},{"base_weights":[3.5673582E-3,-4.4874826E-1,2.9231877E0,-5.395742E-1,-4.929188E-2,-2.2711828E-2,2.9264634E0,-5.455366E-1,1.1648943E-1,-2.585587E-1,6.494079E-1,4.035113E-2,2.9290168E0,-2.1084554E-2,-9.530399E-3,7.28502E-2,-1.6827794E-2,-1.2009315E-2,3.795852E-2,-1.1322611E-3,4.132838E-2,1.1281893E-1,-2.2696087E-2,1.1130391E-1,-2.262521E-2],"categories":[],"categories_nodes":[],"categories_segments":[],"categories_sizes":[],"default_left":[0,0,0,0,0,0,0,0,0,0,0,0,0,0,0,0,0,0,0,0,0,0,0,0,0],"id":5,"left_children":[1,3,5,7,9,-1,11,13,15,17,19,21,23,-1,-1,-1,-1,-1,-1,-1,-1,-1,-1,-1,-1],"loss_changes":[1.2190794E6,2.8999469E4,1.42875E3,2.5474531E3,2.1650482E4,0E0,9.11625E2,1.8175625E3,5.91223E3,8.257733E3,1.0167963E4,2.0544244E2,5.65E2,0E0,0E0,0E0,0E0,0E0,0E0,0E0,0E0,0E0,0E0,0E0,0E0],"parents":[2147483647,0,0,1,1,2,2,3,3,4,4,6,6,7,7,8,8,9,9,10,10,11,11,12,12],"right_children":[2,4,6,8,10,-1,12,14,16,18,20,22,24,-1,-1,-1,-1,-1,-1,-1,-1,-1,-1,-1,-1],"split_conditions":[4E0,3E0,9.9E0,2.15E1,3.3E1,-2.2711828E-2,1E0,2.18E1,1.2E1,1.8227272E1,8.333333E-1,-2.6322222E1,2.37E1,-2.1084554E-2,-9.530399E-3,7.28502E-2,-1.6827794E-2,-1.2009315E-2,3.795852E-2,-1.1322611E-3,4.132838E-2,1.1281893E-1,-2.2696087E-2,1.1130391E-1,-2.262521E-2],"split_indices":[23,23,20,6,29,0,2,31,31,6,4,1,30,0,0,0,0,0,0,0,0,0,0,0,0],"split_type":[0,0,0,0,0,0,0,0,0,0,0,0,0,0,0,0,0,0,0,0,0,0,0,0,0],"sum_hessian":[9.231319E5,7.9930206E5,1.2382983E5,6.5122944E5,1.4807262E5,1.15038925E2,1.2371479E5,6.453643E5,5.8651265E3,1.139452E5,3.4127418E4,1.0936798E2,1.2360542E5,6.250833E5,2.0280955E4,1.3897911E3,4.4753354E3,1.08955234E5,4.9899683E3,1.3391667E4,2.0735752E4,1.9365988E1,9.000199E1,1.23560055E5,4.5368164E1],"tree_param":{"num_deleted":"0","num_feature":"34","num_nodes":"25","size_leaf_vector":"1"}},{"base_weights":[-7.267474E-3,2.3574884E0,-5.705407E-1,1.0236995E0,2.3720121E0,-4.9502072E-1,-5.9035605E-1,8.22666E-1,1.8658913E0,2.3839974E0,9.100489E-1,-3.9856413E-1,-5.436889E-1,-5.736441E-1,-5.9621006E-1,4.0598284E-2,1.2688843E-2,4.7343742E-2,9.112806E-2,8.612255E-2,9.450279E-2,1.9046646E-2,7.48322E-2,-1.6613815E-2,-4.1594426E-3,-2.093095E-2,-1.7355436E-2,-2.0457078E-2,-2.2243463E-2,-2.2660714E-2,-2.1186268E-2],"categories":[],"categories_nodes":[],"categories_segments":[],"categories_sizes":[],"default_left":[0,0,0,0,0,0,0,0,0,0,0,0,0,0,0,0,0,0,0,0,0,0,0,0,0,0,0,0,0,0,0],"id":6,"left_children":[1,3,5,7,9,11,13,15,17,19,21,23,25,27,29,-1,-1,-1,-1,-1,-1,-1,-1,-1,-1,-1,-1,-1,-1,-1,-1],"loss_changes":[1.2470518E6,3.4881875E3,1.131375E3,3.2811475E2,3.121125E3,7.3770703E2,5.85E1,1.8839209E2,1.2259412E2,2.14175E3,6.2743005E2,5.9155664E2,6.666016E1,6.509766E1,6.421875E0,0E0,0E0,0E0,0E0,0E0,0E0,0E0,0E0,0E0,0E0,0E0,0E0,0E0,0E0,0E0,0E0],"parents":[2147483647,0,0,1,1,2,2,3,3,4,4,5,5,6,6,7,7,8,8,9,9,10,10,11,11,12,12,13,13,14,14],"right_children":[2,4,6,8,10,12,14,16,18,20,22,24,26,28,30,-1,-1,-1,-1,-1,-1,-1,-1,-1,-1,-1,-1,-1,-1,-1,-1],"split_conditions":[0E0,7.0422534E-3,1E0,2.1277779E1,2E0,9.7222224E-2,2E0,1.2E1,9E0,1.04E-1,0E0,2.7643171E1,1.89E1,9.7222224E-2,8.501667E1,4.0598284E-2,1.2688843E-2,4.7343742E-2,9.112806E-2,8.612255E-2,9.450279E-2,1.9046646E-2,7.48322E-2,-1.6613815E-2,-4.1594426E-3,-2.093095E-2,-1.7355436E-2,-2.0457078E-2,-2.2243463E-2,-2.2660714E-2,-2.1186268E-2],"split_indices":[22,18,22,1,24,18,22,0,0,18,23,1,30,18,1,0,0,0,0,0,0,0,0,0,0,0,0,0,0,0,0],"split_type":[0,0,0,0,0,0,0,0,0,0,0,0,0,0,0,0,0,0,0,0,0,0,0,0,0,0,0,0,0,0,0],"sum_hessian":[9.362219E5,1.8010348E5,7.5611844E5,1.9402852E3,1.781632E5,1.571597E5,5.989587E5,1.5668435E3,3.7344165E2,1.767143E5,1.448898E3,5.2705047E4,1.04454664E5,1.5538766E5,4.4357106E5,1.0416803E3,5.2516327E2,1.7319884E2,2.0024281E2,8.329479E4,9.3419516E4,1.0461E3,4.027979E2,4.646335E4,6.2416924E3,9.628303E4,8.171631E3,3.9527133E4,1.1586052E5,4.3920775E5,4.3633076E3],"tree_param":{"num_deleted":"0","num_feature":"34","num_nodes":"31","size_leaf_vector":"1"}},{"base_weights":[-3.4839783E-3,1.003881E0,-5.7322013E-1,-3.6099568E-1,2.3349833E0,-5.18161E-1,-5.925357E-1,-2.4999401E-1,-4.6565545E-1,5.289845E-1,2.3546333E0,-4.165734E-1,-5.5272204E-1,-5.850587E-1,-5.9654397E-1,1.9613912E-2,-1.019377E-2,-1.8479506E-2,-1.4767218E-2,5.6907035E-2,1.4881014E-2,8.278788E-2,9.400689E-2,-1.7112734E-2,-1.1959518E-2,-2.1310136E-2,-1.777784E-2,-1.8828746E-2,-2.2260798E-2,-2.1970842E-2,-2.2662697E-2],"categories":[],"categories_nodes":[],"categories_segments":[],"categories_sizes":[],"default_left":[0,0,0,0,0,0,0,0,0,0,0,0,0,0,0,0,0,0,0,0,0,0,0,0,0,0,0,0,0,0,0],"id":7,"left_children":[1,3,5,7,9,11,13,15,17,19,21,23,25,27,29,-1,-1,-1,-1,-1,-1,-1,-1,-1,-1,-1,-1,-1,-1,-1,-1],"loss_changes":[5.3439494E5,6.1111225E5,6.324219E2,1.9293594E3,6.0429375E3,5.422383E2,1.3078125E1,1.13525E3,1.3700586E2,2.4362927E2,3.5461875E3,1.3538379E2,8.105469E1,1.3707031E1,4.375E-1,0E0,0E0,0E0,0E0,0E0,0E0,0E0,0E0,0E0,0E0,0E0,0E0,0E0,0E0,0E0,0E0],"parents":[2147483647,0,0,1,1,2,2,3,3,4,4,5,5,6,6,7,7,8,8,9,9,10,10,11,11,12,12,13,13,14,14],"right_children":[2,4,6,8,10,12,14,16,18,20,22,24,26,28,30,-1,-1,-1,-1,-1,-1,-1,-1,-1,-1,-1,-1,-1,-1,-1,-1],"split_conditions":[1E0,0E0,2E0,1.04E-1,1E0,9.7222224E-2,3E0,1E0,1.3E1,3E0,1.04E-1,3.6222222E0,1.79E1,1.07E1,1E0,1.9613912E-2,-1.019377E-2,-1.8479506E-2,-1.4767218E-2,5.6907035E-2,1.4881014E-2,8.278788E-2,9.400689E-2,-1.7112734E-2,-1.1959518E-2,-2.1310136E-2,-1.777784E-2,-1.8828746E-2,-2.2260798E-2,-2.1970842E-2,-2.2662697E-2],"split_indices":[22,22,22,18,2,18,22,2,0,0,18,1,30,19,2,0,0,0,0,0,0,0,0,0,0,0,0,0,0,0,0],"split_type":[0,0,0,0,0,0,0,0,0,0,0,0,0,0,0,0,0,0,0,0,0,0,0,0,0,0,0,0,0,0,0],"sum_hessian":[9.31111E5,3.363687E5,5.9474225E5,1.660775E5,1.702912E5,1.5446011E5,4.4028216E5,8.059733E4,8.548017E4,1.8329729E3,1.6845823E5,3.9210324E4,1.1524979E5,1.536708E5,2.8661134E5,1.8873898E3,7.870994E4,6.723709E4,1.8243076E4,2.269573E2,1.6060156E3,6.86131E4,9.984513E4,2.9395904E4,9.814418E3,1.0494638E5,1.0303405E4,1.7094779E3,1.5196133E5,1.5789448E3,2.850324E5],"tree_param":{"num_deleted":"0","num_feature":"34","num_nodes":"31","size_leaf_vector":"1"}},{"base_weights":[3.0111168E-3,5.193741E-1,-5.730474E-1,-4.6526685E-1,2.3793905E0,-5.397739E-1,-5.908911E-1,-4.9338832E-1,-3.470909E-1,2.1060345E0,2.4710412E0,-4.5418638E-1,-5.581368E-1,-4.7678566E-1,-5.9152615E-1,-2.0211678E-2,-1.6966533E-2,-1.7299462E-2,-9.117443E-3,2.9023832E-2,8.181129E-2,9.602998E-2,8.894939E-2,-1.115056E-2,-1.8763138E-2,-2.122501E-2,9.657512E-3,1.6326741E-3,-2.1720156E-2,-2.155745E-2,-2.2504514E-2],"categories":[],"categories_nodes":[],"categories_segments":[],"categories_sizes":[],"default_left":[0,0,0,0,0,0,0,0,0,0,0,0,0,0,0,0,0,0,0,0,0,0,0,0,0,0,0,0,0,0,0],"id":8,"left_children":[1,3,5,7,9,11,13,15,17,19,21,23,25,27,29,-1,-1,-1,-1,-1,-1,-1,-1,-1,-1,-1,-1,-1,-1,-1,-1],"loss_changes":[2.745702E5,8.914621E5,2.5895312E2,1.0576484E3,4.219625E3,2.3930078E2,2.05E1,4.6497656E2,7.096372E2,2.7145E3,9.30375E2,1.719414E2,6.694141E1,7.772598E1,6.3671875E0,0E0,0E0,0E0,0E0,0E0,0E0,0E0,0E0,0E0,0E0,0E0,0E0,0E0,0E0,0E0,0E0],"parents":[2147483647,0,0,1,1,2,2,3,3,4,4,5,5,6,6,7,7,8,8,9,9,10,10,11,11,12,12,13,13,14,14],"right_children":[2,4,6,8,10,12,14,16,18,20,22,24,26,28,30,-1,-1,-1,-1,-1,-1,-1,-1,-1,-1,-1,-1,-1,-1,-1,-1],"split_conditions":[2E0,1E0,3E0,2.455E1,9.7222224E-2,7.8947365E-2,1E0,0E0,0E0,1E0,6.3446133E4,1.5738161E-1,3.154E2,-1.8369701E-16,1.2462687E-1,-2.0211678E-2,-1.6966533E-2,-1.7299462E-2,-9.117443E-3,2.9023832E-2,8.181129E-2,9.602998E-2,8.894939E-2,-1.115056E-2,-1.8763138E-2,-2.122501E-2,9.657512E-3,1.6326741E-3,-2.1720156E-2,-2.155745E-2,-2.2504514E-2],"split_indices":[22,22,22,25,18,18,2,24,22,2,15,6,7,12,5,0,0,0,0,0,0,0,0,0,0,0,0,0,0,0,0],"split_type":[0,0,0,0,0,0,0,0,0,0,0,0,0,0,0,0,0,0,0,0,0,0,0,0,0,0,0,0,0,0,0],"sum_hessian":[9.230633E5,4.8675212E5,4.3631116E5,3.1826938E5,1.6848273E5,1.5230844E5,2.8400272E5,2.5709053E5,6.1178848E4,4.23066E4,1.2617614E5,2.6906791E4,1.2540164E5,1.5729453E3,2.8242978E5,1.4055189E5,1.1653864E5,3.0404424E4,3.0774424E4,1.4559595E3,4.0850645E4,8.748771E4,3.868843E4,5.342862E3,2.1563928E4,1.25300445E5,1.0119587E2,2.4318526E2,1.3297601E3,1.0802386E4,2.716274E5],"tree_param":{"num_deleted":"0","num_feature":"34","num_nodes":"31","size_leaf_vector":"1"}},{"base_weights":[3.359529E-3,-5.078009E-1,5.36239E-1,-5.46664E-1,-4.229637E-1,2.390698E0,-5.604377E-1,-1.00297764E-1,-5.5226785E-1,-2.8776336E-1,-4.7706133E-1,3.9415506E-1,2.418007E0,-1.5547654E-1,-5.6347376E-1,-8.421306E-3,2.7037295E-2,-2.1126766E-2,-5.568533E-4,1.6192175E-2,-1.1691991E-2,-1.2108143E-2,-1.8811593E-2,-1.4960417E-2,4.5810644E-2,8.1470266E-2,9.53785E-2,-1.7228905E-2,1.3312911E-2,-5.7902937E-3,-2.1482272E-2],"categories":[],"categories_nodes":[],"categories_segments":[],"categories_sizes":[],"default_left":[0,0,0,0,0,0,0,0,0,0,0,0,0,0,0,0,0,0,0,0,0,0,0,0,0,0,0,0,0,0,0],"id":9,"left_children":[1,3,5,7,9,11,13,15,17,19,21,23,25,27,29,-1,-1,-1,-1,-1,-1,-1,-1,-1,-1,-1,-1,-1,-1,-1,-1],"loss_changes":[2.5154208E5,1.5539688E3,9.195186E5,8.085703E2,1.0830469E3,9.160625E3,3.4928906E2,3.9526413E2,6.7609375E2,6.0602515E2,3.0454297E2,1.4508721E3,4.2101875E3,3.1900156E2,2.4255469E2,0E0,0E0,0E0,0E0,0E0,0E0,0E0,0E0,0E0,0E0,0E0,0E0,0E0,0E0,0E0,0E0],"parents":[2147483647,0,0,1,1,2,2,3,3,4,4,5,5,6,6,7,7,8,8,9,9,10,10,11,11,12,12,13,13,14,14],"right_children":[2,4,6,8,10,12,14,16,18,20,22,24,26,28,30,-1,-1,-1,-1,-1,-1,-1,-1,-1,-1,-1,-1,-1,-1,-1,-1],"split_conditions":[2E0,1E0,3E0,1E0,9.876543E-2,1E0,1.08E1,1E0,2E0,1E0,4.3333334E-1,-5E-1,9.876543E-2,2.009E2,1E0,-8.421306E-3,2.7037295E-2,-2.1126766E-2,-5.568533E-4,1.6192175E-2,-1.1691991E-2,-1.2108143E-2,-1.8811593E-2,-1.4960417E-2,4.5810644E-2,8.1470266E-2,9.53785E-2,-1.7228905E-2,1.3312911E-2,-5.7902937E-3,-2.1482272E-2],"split_indices":[22,23,22,2,18,2,20,13,24,2,11,13,18,7,2,0,0,0,0,0,0,0,0,0,0,0,0,0,0,0,0],"split_type":[0,0,0,0,0,0,0,0,0,0,0,0,0,0,0,0,0,0,0,0,0,0,0,0,0,0,0,0,0,0,0],"sum_hessian":[9.234729E5,4.713419E5,4.5213097E5,3.2325862E5,1.4808327E5,1.6801706E5,2.841139E5,4.0080422E3,3.192506E5,4.231979E4,1.0576348E5,2.2671978E3,1.6574986E5,2.1143213E3,2.819996E5,3.4869512E3,5.2109125E2,3.1692834E5,2.3222417E3,1.155864E3,4.1163926E4,1.0903884E4,9.485959E4,1.1505992E3,1.1165985E3,4.2115605E4,1.2363425E5,1.3304579E3,7.838633E2,1.4286417E3,2.8057094E5],"tree_param":{"num_deleted":"0","num_feature":"34","num_nodes":"31","size_leaf_vector":"1"}},{"base_weights":[2.6122257E-3,-5.029565E-1,1.0526508E0,-5.4342604E-1,-3.7885064E-1,2.4044151E0,-5.6129783E-1,-5.4645723E-1,1.0851803E-1,5.5299234E-1,-3.926363E-1,2.4957407E0,2.067607E0,1.1601236E0,-5.624032E-1,-9.391859E-3,-2.0879332E-2,2.870588E-2,-3.1232098E-3,1.5558771E-2,6.5174185E-2,-1.619098E-2,-7.1640927E-3,9.5823355E-2,6.700335E-2,5.8368847E-2,8.382544E-2,1.0308949E-1,-2.2827232E-2,5.672656E-3,-2.1424796E-2],"categories":[],"categories_nodes":[],"categories_segments":[],"categories_sizes":[],"default_left":[0,0,0,0,0,0,0,0,0,0,0,0,0,0,0,0,0,0,0,0,0,0,0,0,0,0,0,0,0,0,0],"id":10,"left_children":[1,3,5,7,9,11,13,15,17,19,21,23,25,27,29,-1,-1,-1,-1,-1,-1,-1,-1,-1,-1,-1,-1,-1,-1,-1,-1],"loss_changes":[4.9087444E5,3.1347344E3,6.55626E5,9.301406E2,1.9717012E3,5.028875E3,2.608203E2,4.535E2,2.6895926E2,3.7286316E2,1.0375879E3,2.54175E3,2.5787188E3,2.4126869E2,1.6079688E2,0E0,0E0,0E0,0E0,0E0,0E0,0E0,0E0,0E0,0E0,0E0,0E0,0E0,0E0,0E0,0E0],"parents":[2147483647,0,0,1,1,2,2,3,3,4,4,5,5,6,6,7,7,8,8,9,9,10,10,11,11,12,12,13,13,14,14],"right_children":[2,4,6,8,10,12,14,16,18,20,22,24,26,28,30,-1,-1,-1,-1,-1,-1,-1,-1,-1,-1,-1,-1,-1,-1,-1,-1],"split_conditions":[3E0,2E0,4E0,3E0,1E0,3.3E1,9.9E0,1E0,0E0,3E0,2.5216667E1,1.755E1,1.48E1,2.42E1,1E0,-9.391859E-3,-2.0879332E-2,2.870588E-2,-3.1232098E-3,1.5558771E-2,6.5174185E-2,-1.619098E-2,-7.1640927E-3,9.5823355E-2,6.700335E-2,5.8368847E-2,8.382544E-2,1.0308949E-1,-2.2827232E-2,5.672656E-3,-2.1424796E-2],"split_indices":[22,22,22,24,2,28,20,2,22,24,26,5,30,26,2,0,0,0,0,0,0,0,0,0,0,0,0,0,0,0,0],"split_type":[0,0,0,0,0,0,0,0,0,0,0,0,0,0,0,0,0,0,0,0,0,0,0,0,0,0,0,0,0,0,0],"sum_hessian":[9.2466544E5,6.2415144E5,3.00514E5,4.706703E5,1.5348112E5,1.6354042E5,1.369736E5,4.6849212E5,2.1781902E3,2.2373318E3,1.512438E5,1.2865409E5,3.488633E4,8.77042E1,1.3688589E5,5.0124805E3,4.6347962E5,4.9561823E2,1.6825719E3,1.9921039E3,2.4522801E2,1.29843836E5,2.1399963E4,1.24073055E5,4.581034E3,7.250559E3,2.7635768E4,4.650999E1,4.1194206E1,3.1657205E2,1.3656931E5],"tree_param":{"num_deleted":"0","num_feature":"34","num_nodes":"31","size_leaf_vector":"1"}},{"base_weights":[5.6181755E-3,-5.1703376E-1,2.6879966E0,-5.637407E-1,-2.736647E-1,2.9272678E0,2.6576803E0,-2.1504785E-1,-5.680174E-1,-3.3636573E-1,6.1106646E-1,2.3153229E0,2.9377985E0,-2.2544017E-2,2.6587756E0,-1.9363048E-2,4.059926E-2,-2.1682078E-2,-9.315684E-3,-1.6430125E-2,2.1863265E-3,-1.980291E-2,3.5309333E-2,-2.2600058E-2,1.1347835E-1,1.12895705E-1,1.0909152E-1,2.7841233E-2,1.0101846E-1],"categories":[],"categories_nodes":[],"categories_segments":[],"categories_sizes":[],"default_left":[0,0,0,0,0,0,0,0,0,0,0,0,0,0,0,0,0,0,0,0,0,0,0,0,0,0,0,0,0],"id":11,"left_children":[1,3,5,7,9,11,13,15,17,19,21,23,25,-1,27,-1,-1,-1,-1,-1,-1,-1,-1,-1,-1,-1,-1,-1,-1],"loss_changes":[1.2961424E6,8.795344E3,1.091375E3,9.680781E2,6.9114473E3,1.07265625E2,4.769375E2,2.9767498E3,5.814844E2,4.408574E3,2.974303E3,5.642129E2,3.525E1,0E0,1.926875E2,0E0,0E0,0E0,0E0,0E0,0E0,0E0,0E0,0E0,0E0,0E0,0E0,0E0,0E0],"parents":[2147483647,0,0,1,1,2,2,3,3,4,4,5,5,6,6,7,7,8,8,9,9,10,10,11,11,12,12,14,14],"right_children":[2,4,6,8,10,12,14,16,18,20,22,24,26,-1,28,-1,-1,-1,-1,-1,-1,-1,-1,-1,-1,-1,-1,-1,-1],"split_conditions":[4E0,3E0,4E0,7.0422534E-3,2.0423077E1,7.0422534E-3,8.772904E-2,3.57E1,2.15E1,3.3E1,2E1,2.2697368E-1,3.52E1,-2.2544017E-2,7.0422534E-3,-1.9363048E-2,4.059926E-2,-2.1682078E-2,-9.315684E-3,-1.6430125E-2,2.1863265E-3,-1.980291E-2,3.5309333E-2,-2.2600058E-2,1.1347835E-1,1.12895705E-1,1.0909152E-1,2.7841233E-2,1.0101846E-1],"split_indices":[22,24,23,18,4,18,5,28,6,28,6,5,27,0,18,0,0,0,0,0,0,0,0,0,0,0,0,0,0],"split_type":[0,0,0,0,0,0,0,0,0,0,0,0,0,0,0,0,0,0,0,0,0,0,0,0,0,0,0,0,0],"sum_hessian":[9.245275E5,7.7376275E5,1.507647E5,6.491741E5,1.24588625E5,1.6951064E4,1.3381364E5,7.8659517E3,6.413082E5,1.1634352E5,8.245102E3,2.878417E2,1.6663223E4,4.501325E1,1.3376862E5,6.3975474E3,1.4684039E3,6.35774E5,5.534193E3,9.350949E4,2.2834025E4,1.8100095E3,6.435092E3,5.4017277E1,2.3382443E2,1.0927968E4,5.7352554E3,5.221067E1,1.337164E5],"tree_param":{"num_deleted":"0","num_feature":"34","num_nodes":"29","size_leaf_vector":"1"}},{"base_weights":[-6.6330386E-3,2.1515808E0,-5.672981E-1,9.3589354E-1,2.1646883E0,-4.91222E-1,-5.8738166E-1,4.6324193E-1,1.2392278E0,2.1745486E0,8.905977E-1,-3.947278E-1,-5.4018766E-1,-5.703306E-1,-5.933669E-1,2.9300502E-2,-2.7229483E-3,3.6856335E-2,7.010809E-2,7.8669876E-2,8.609023E-2,1.9274833E-2,6.964477E-2,-1.644995E-2,-4.2449175E-3,-2.106311E-2,-1.9061362E-2,-2.0316228E-2,-2.2121748E-2,-2.2552578E-2,-2.1169344E-2],"categories":[],"categories_nodes":[],"categories_segments":[],"categories_sizes":[],"default_left":[0,0,0,0,0,0,0,0,0,0,0,0,0,0,0,0,0,0,0,0,0,0,0,0,0,0,0,0,0,0,0],"id":12,"left_children":[1,3,5,7,9,11,13,15,17,19,21,23,25,27,29,-1,-1,-1,-1,-1,-1,-1,-1,-1,-1,-1,-1,-1,-1,-1,-1],"loss_changes":[1.1302562E6,3.06875E3,1.1327812E3,2.9448364E2,2.393375E3,7.316289E2,5.9765625E1,1.3251865E2,2.0361829E2,1.79675E3,5.2863184E2,5.657373E2,5.64375E1,6.515625E1,5.8125E0,0E0,0E0,0E0,0E0,0E0,0E0,0E0,0E0,0E0,0E0,0E0,0E0,0E0,0E0,0E0,0E0],"parents":[2147483647,0,0,1,1,2,2,3,3,4,4,5,5,6,6,7,7,8,8,9,9,10,10,11,11,12,12,13,13,14,14],"right_children":[2,4,6,8,10,12,14,16,18,20,22,24,26,28,30,-1,-1,-1,-1,-1,-1,-1,-1,-1,-1,-1,-1,-1,-1,-1,-1],"split_conditions":[0E0,1E0,1E0,-1.6794445E1,2E0,9.7222224E-2,2E0,4.77707E-1,2.6716667E1,1.04E-1,0E0,2.7643171E1,4.080831E0,9.7222224E-2,8.501667E1,2.9300502E-2,-2.7229483E-3,3.6856335E-2,7.010809E-2,7.8669876E-2,8.609023E-2,1.9274833E-2,6.964477E-2,-1.644995E-2,-4.2449175E-3,-2.106311E-2,-1.9061362E-2,-2.0316228E-2,-2.2121748E-2,-2.2552578E-2,-2.1169344E-2],"split_indices":[22,2,22,1,24,18,22,4,25,18,23,1,1,18,1,0,0,0,0,0,0,0,0,0,0,0,0,0,0,0,0],"split_type":[0,0,0,0,0,0,0,0,0,0,0,0,0,0,0,0,0,0,0,0,0,0,0,0,0,0,0,0,0,0,0],"sum_hessian":[9.3406844E5,1.9261581E5,7.414526E5,2.0548547E3,1.9056095E5,1.5485831E5,5.865943E5,8.035303E2,1.2513246E3,1.8909733E5,1.4636398E3,5.213028E4,1.0272802E5,1.5241652E5,4.3417778E5,5.0975134E2,2.9377893E2,8.674695E2,3.8385504E2,8.901663E4,1.0008069E5,1.0410671E3,4.225726E2,4.5908043E4,6.2222407E3,7.476543E4,2.79626E4,3.871002E4,1.1370649E5,4.296704E5,4.50739E3],"tree_param":{"num_deleted":"0","num_feature":"34","num_nodes":"31","size_leaf_vector":"1"}},{"base_weights":[-2.3829772E-3,9.5375496E-1,-5.7021725E-1,-3.5540715E-1,2.1336038E0,-5.1484793E-1,-5.897117E-1,-2.44985E-1,-4.6019322E-1,4.961783E-1,2.1507294E0,-4.1318324E-1,-5.495193E-1,-5.821081E-1,-5.937918E-1,-4.974489E-3,-1.3987466E-2,-2.0787582E-2,-1.6771639E-2,5.385707E-2,1.3751349E-2,7.596917E-2,8.5592456E-2,-1.6989833E-2,-1.1845606E-2,-2.1195034E-2,-1.759761E-2,-2.1397067E-2,-2.2281654E-2,-2.1743355E-2,-2.255867E-2],"categories":[],"categories_nodes":[],"categories_segments":[],"categories_sizes":[],"default_left":[0,0,0,0,0,0,0,0,0,0,0,0,0,0,0,0,0,0,0,0,0,0,0,0,0,0,0,0,0,0,0],"id":13,"left_children":[1,3,5,7,9,11,13,15,17,19,21,23,25,27,29,-1,-1,-1,-1,-1,-1,-1,-1,-1,-1,-1,-1,-1,-1,-1,-1],"loss_changes":[5.0437472E5,5.346575E5,6.290469E2,1.8984863E3,5.1051875E3,5.349219E2,1.3265625E1,1.1228516E3,1.366211E2,2.3290305E2,2.7861875E3,1.333623E2,8.272656E1,1.2640625E1,5.78125E-1,0E0,0E0,0E0,0E0,0E0,0E0,0E0,0E0,0E0,0E0,0E0,0E0,0E0,0E0,0E0,0E0],"parents":[2147483647,0,0,1,1,2,2,3,3,4,4,5,5,6,6,7,7,8,8,9,9,10,10,11,11,12,12,13,13,14,14],"right_children":[2,4,6,8,10,12,14,16,18,20,22,24,26,28,30,-1,-1,-1,-1,-1,-1,-1,-1,-1,-1,-1,-1,-1,-1,-1,-1],"split_conditions":[1E0,0E0,2E0,1.04E-1,1E0,9.7222224E-2,3E0,-2.5944445E0,2E0,3E0,1.04E-1,3.6222222E0,1.79E1,9.7222224E-2,1E0,-4.974489E-3,-1.3987466E-2,-2.0787582E-2,-1.6771639E-2,5.385707E-2,1.3751349E-2,7.596917E-2,8.5592456E-2,-1.6989833E-2,-1.1845606E-2,-2.1195034E-2,-1.759761E-2,-2.1397067E-2,-2.2281654E-2,-2.1743355E-2,-2.255867E-2],"split_indices":[22,22,22,18,2,18,22,1,0,0,18,1,30,18,2,0,0,0,0,0,0,0,0,0,0,0,0,0,0,0,0],"split_type":[0,0,0,0,0,0,0,0,0,0,0,0,0,0,0,0,0,0,0,0,0,0,0,0,0,0,0,0,0,0,0],"sum_hessian":[9.2898975E5,3.4614284E5,5.828469E5,1.6407983E5,1.8206303E5,1.5177489E5,4.31072E5,7.989184E4,8.4187984E4,1.8845583E3,1.8017847E5,3.8598574E4,1.1317632E5,1.5054872E5,2.8052328E5,4.1502383E4,3.838946E4,1.4844275E4,6.934371E4,2.3907762E2,1.6454807E3,7.30216E4,1.0715687E5,2.8876348E4,9.722225E3,1.0303539E5,1.014093E4,2.9122326E4,1.214264E5,1.4880037E3,2.7903525E5],"tree_param":{"num_deleted":"0","num_feature":"34","num_nodes":"31","size_leaf_vector":"1"}},{"base_weights":[2.9702992E-3,4.4974932E-1,-5.466026E-1,-3.484295E-1,1.914172E0,-4.8423812E-1,-5.824776E-1,-4.4463E-1,-2.4162005E-1,1.4811915E0,2.0886762E0,7.7859217E-1,-4.891063E-1,-1.4372326E-1,-5.8340365E-1,-1.8572267E-2,-1.2745046E-2,-2.036343E-3,-1.4331137E-2,5.8404647E-2,9.688736E-3,8.323944E-2,7.125411E-2,8.05509E-3,4.5927897E-2,-1.3229432E-2,-1.9677892E-2,4.647819E-2,-1.1065214E-2,-2.226902E-2,-1.9919407E-2],"categories":[],"categories_nodes":[],"categories_segments":[],"categories_sizes":[],"default_left":[0,0,0,0,0,0,0,0,0,0,0,0,0,0,0,0,0,0,0,0,0,0,0,0,0,0,0,0,0,0,0],"id":14,"left_children":[1,3,5,7,9,11,13,15,17,19,21,23,25,27,29,-1,-1,-1,-1,-1,-1,-1,-1,-1,-1,-1,-1,-1,-1,-1,-1],"loss_changes":[2.2651002E5,5.9476944E5,9.254297E2,3.3839453E3,1.3561875E4,9.288008E2,1.06671875E2,8.3778906E2,3.9809658E3,3.5679531E3,2.7965E3,1.4145459E2,6.1353125E2,1.1180174E2,4.4359375E1,0E0,0E0,0E0,0E0,0E0,0E0,0E0,0E0,0E0,0E0,0E0,0E0,0E0,0E0,0E0,0E0],"parents":[2147483647,0,0,1,1,2,2,3,3,4,4,5,5,6,6,7,7,8,8,9,9,10,10,11,11,12,12,13,13,14,14],"right_children":[2,4,6,8,10,12,14,16,18,20,22,24,26,28,30,-1,-1,-1,-1,-1,-1,-1,-1,-1,-1,-1,-1,-1,-1,-1,-1],"split_conditions":[2E0,1E0,3E0,0E0,9.876543E-2,6.8113774E-2,7.128842E-2,1.64E1,1.04E-1,9.463209E4,6.3446133E4,2.067E2,7.8947365E-2,9.7E0,2.7643171E1,-1.8572267E-2,-1.2745046E-2,-2.036343E-3,-1.4331137E-2,5.8404647E-2,9.688736E-3,8.323944E-2,7.125411E-2,8.05509E-3,4.5927897E-2,-1.3229432E-2,-1.9677892E-2,4.647819E-2,-1.1065214E-2,-2.226902E-2,-1.9919407E-2],"split_indices":[23,23,23,23,18,4,4,31,18,15,15,9,18,31,1,0,0,0,0,0,0,0,0,0,0,0,0,0,0,0,0],"split_type":[0,0,0,0,0,0,0,0,0,0,0,0,0,0,0,0,0,0,0,0,0,0,0,0,0,0,0,0,0,0,0],"sum_hessian":[9.225056E5,5.088404E5,4.1366522E5,3.2933672E5,1.7950369E5,1.5106328E5,2.6260194E5,1.7327316E5,1.5606356E5,5.156447E4,1.2793921E5,5.799334E2,1.5048334E5,5.531956E2,2.6204873E5,1.2321024E5,5.0062918E4,6.5416324E4,9.064724E4,4.9295445E4,2.269021E3,8.626431E4,4.16749E4,2.5061063E2,3.2932278E2,2.5667316E4,1.2481603E5,5.3690067E1,4.9950555E2,2.4986427E5,1.2184456E4],"tree_param":{"num_deleted":"0","num_feature":"34","num_nodes":"31","size_leaf_vector":"1"}},{"base_weights":[2.2848318E-3,-5.04504E-1,5.139942E-1,-5.434473E-1,-4.1985017E-1,2.1783557E0,-5.5713665E-1,-9.25866E-2,-5.4917896E-1,-2.873151E-1,-4.7306028E-1,3.7017944E-1,2.2017338E0,-4.509148E-1,-5.692406E-1,-8.00615E-3,2.5019167E-2,-2.100557E-2,-6.6268916E-4,1.4749664E-2,-1.1642443E-2,-1.8608991E-2,-1.2271473E-2,-1.5447148E-2,4.555171E-2,7.771919E-2,8.828539E-2,-4.1512637E-3,-1.786034E-2,-2.1697331E-2,-1.2335895E-2],"categories":[],"categories_nodes":[],"categories_segments":[],"categories_sizes":[],"default_left":[0,0,0,0,0,0,0,0,0,0,0,0,0,0,0,0,0,0,0,0,0,0,0,0,0,0,0,0,0,0,0],"id":15,"left_children":[1,3,5,7,9,11,13,15,17,19,21,23,25,27,29,-1,-1,-1,-1,-1,-1,-1,-1,-1,-1,-1,-1,-1,-1,-1,-1],"loss_changes":[2.3928566E5,1.5282344E3,8.185089E5,8.205E2,1.0300684E3,7.5993125E3,3.5909375E2,3.539895E2,6.3975E2,5.4276514E2,2.6353125E2,1.4783073E3,3.3836875E3,1.8836914E2,1.218125E2,0E0,0E0,0E0,0E0,0E0,0E0,0E0,0E0,0E0,0E0,0E0,0E0,0E0,0E0,0E0,0E0],"parents":[2147483647,0,0,1,1,2,2,3,3,4,4,5,5,6,6,7,7,8,8,9,9,10,10,11,11,12,12,13,13,14,14],"right_children":[2,4,6,8,10,12,14,16,18,20,22,24,26,28,30,-1,-1,-1,-1,-1,-1,-1,-1,-1,-1,-1,-1,-1,-1,-1,-1],"split_conditions":[2E0,1E0,3E0,1E0,9.876543E-2,1E0,7.8947365E-2,1E0,2E0,1E0,1.3933333E1,-5E-1,1.7699115E-1,1E0,5.4177776E1,-8.00615E-3,2.5019167E-2,-2.100557E-2,-6.6268916E-4,1.4749664E-2,-1.1642443E-2,-1.8608991E-2,-1.2271473E-2,-1.5447148E-2,4.555171E-2,7.771919E-2,8.828539E-2,-4.1512637E-3,-1.786034E-2,-2.1697331E-2,-1.2335895E-2],"split_indices":[22,23,22,2,18,2,18,13,24,2,4,13,18,2,1,0,0,0,0,0,0,0,0,0,0,0,0,0,0,0,0],"split_type":[0,0,0,0,0,0,0,0,0,0,0,0,0,0,0,0,0,0,0,0,0,0,0,0,0,0,0,0,0,0,0],"sum_hessian":[9.227115E5,4.6358466E5,4.5912684E5,3.175162E5,1.4606847E5,1.797792E5,2.7934766E5,3.9858872E3,3.135303E5,4.1844508E4,1.0422395E5,2.2947637E3,1.7748444E5,2.8576492E4,2.5077116E5,3.4442349E3,5.416523E2,3.1128384E5,2.2464617E3,1.155945E3,4.0688562E4,9.369094E4,1.0533017E4,1.1847582E3,1.1100054E3,7.820315E4,9.928129E4,1.527948E3,2.7048543E4,2.4874819E5,2.0229688E3],"tree_param":{"num_deleted":"0","num_feature":"34","num_nodes":"31","size_leaf_vector":"1"}},{"base_weights":[1.4288372E-3,-4.9967664E-1,9.982153E-1,-5.403998E-1,-3.670712E-1,2.1820908E0,-5.5782926E-1,-5.429087E-1,2.510999E-1,-1.0743203E-1,-4.5720407E-1,2.2673237E0,1.8679949E0,1.546905E0,-5.588877E-1,-6.3905963E-3,-2.078889E-2,2.177361E-2,-8.332997E-3,-5.4392563E-3,2.5209341E-2,-1.972E-2,-1.2143223E-2,8.6856164E-2,6.238549E-2,5.50391E-2,7.676719E-2,9.31878E-2,-2.2575561E-2,1.4193445E-2,-2.129905E-2],"categories":[],"categories_nodes":[],"categories_segments":[],"categories_sizes":[],"default_left":[0,0,0,0,0,0,0,0,0,0,0,0,0,0,0,0,0,0,0,0,0,0,0,0,0,0,0,0,0,0,0],"id":16,"left_children":[1,3,5,7,9,11,13,15,17,19,21,23,25,27,29,-1,-1,-1,-1,-1,-1,-1,-1,-1,-1,-1,-1,-1,-1,-1,-1],"loss_changes":[4.607966E5,3.3150938E3,5.685319E5,9.326875E2,3.3753965E3,4.6910625E3,2.973164E2,7.723281E2,2.249914E2,1.0251904E3,9.1226953E2,1.665875E3,2.3983828E3,1.3066316E2,2.3064453E2,0E0,0E0,0E0,0E0,0E0,0E0,0E0,0E0,0E0,0E0,0E0,0E0,0E0,0E0,0E0,0E0],"parents":[2147483647,0,0,1,1,2,2,3,3,4,4,5,5,6,6,7,7,8,8,9,9,10,10,11,11,12,12,13,13,14,14],"right_children":[2,4,6,8,10,12,14,16,18,20,22,24,26,28,30,-1,-1,-1,-1,-1,-1,-1,-1,-1,-1,-1,-1,-1,-1,-1,-1],"split_conditions":[3E0,2E0,4E0,3E0,9.876543E-2,3.3E1,9.9E0,1E0,9.876543E-2,9.463209E4,6.3446133E4,1.8227272E1,9.7222224E-2,2.42E1,1E0,-6.3905963E-3,-2.078889E-2,2.177361E-2,-8.332997E-3,-5.4392563E-3,2.5209341E-2,-1.972E-2,-1.2143223E-2,8.6856164E-2,6.238549E-2,5.50391E-2,7.676719E-2,9.31878E-2,-2.2575561E-2,1.4193445E-2,-2.129905E-2],"split_indices":[22,23,22,24,18,28,20,2,18,15,15,6,18,26,2,0,0,0,0,0,0,0,0,0,0,0,0,0,0,0,0],"split_type":[0,0,0,0,0,0,0,0,0,0,0,0,0,0,0,0,0,0,0,0,0,0,0,0,0,0,0,0,0,0,0],"sum_hessian":[9.22524E5,6.139025E5,3.086215E5,4.6966688E5,1.4423561E5,1.7527105E5,1.3335045E5,4.6818288E5,1.4839764E3,3.716828E4,1.0706733E5,1.378597E5,3.741135E4,6.6815125E1,1.3328364E5,5.438337E3,4.6274456E5,8.808216E2,6.031548E2,3.5520902E4,1.6473795E3,7.38063E4,3.326103E4,1.3371839E5,4.1413066E3,1.0011263E4,2.740009E4,4.6913303E1,1.990182E1,2.6449588E2,1.3301916E5],"tree_param":{"num_deleted":"0","num_feature":"34","num_nodes":"31","size_leaf_vector":"1"}},{"base_weights":[1.974695E-3,-5.149836E-1,2.4327521E0,-5.592448E-1,-2.8495562E-1,2.6287775E0,2.4063516E0,-1.7920034E-1,-5.63995E-1,-4.0182292E-1,1.3045801E-1,2.6353855E0,5.455146E-1,-2.2403847E-2,2.4072E0,-1.9222768E-2,4.1858986E-2,-2.1435078E-2,1.06092624E-1,-1.6683172E-2,1.9986223E-2,3.16486E-2,-5.601417E-3,-2.2126872E-2,1.0017404E-1,-2.2518229E-2,9.941863E-2,3.57773E-2,9.1451705E-2],"categories":[],"categories_nodes":[],"categories_segments":[],"categories_sizes":[],"default_left":[0,0,0,0,0,0,0,0,0,0,0,0,0,0,0,0,0,0,0,0,0,0,0,0,0,0,0,0,0],"id":17,"left_children":[1,3,5,7,9,11,13,15,17,19,21,23,25,-1,27,-1,-1,-1,-1,-1,-1,-1,-1,-1,-1,-1,-1,-1,-1],"loss_changes":[1.15862E6,7.7410156E3,8.35E2,1.1510625E3,5.956461E3,2.6376562E2,3.626875E2,3.2969204E3,6.961875E2,3.3231514E3,5.261497E3,1.17953125E2,1.4441046E2,0E0,9.55E1,0E0,0E0,0E0,0E0,0E0,0E0,0E0,0E0,0E0,0E0,0E0,0E0,0E0,0E0],"parents":[2147483647,0,0,1,1,2,2,3,3,4,4,5,5,6,6,7,7,8,8,9,9,10,10,11,11,12,12,14,14],"right_children":[2,4,6,8,10,12,14,16,18,20,22,24,26,-1,28,-1,-1,-1,-1,-1,-1,-1,-1,-1,-1,-1,-1,-1,-1],"split_conditions":[4E0,3E0,4E0,1E0,3.3E1,5.4177776E1,8.772904E-2,3.57E1,4E0,1.8227272E1,1.4E0,9.6E0,7E0,-2.2403847E-2,1E0,-1.9222768E-2,4.1858986E-2,-2.1435078E-2,1.06092624E-1,-1.6683172E-2,1.9986223E-2,3.16486E-2,-5.601417E-3,-2.2126872E-2,1.0017404E-1,-2.2518229E-2,9.941863E-2,3.57773E-2,9.1451705E-2],"split_indices":[22,24,23,2,29,1,5,28,23,6,7,19,0,0,2,0,0,0,0,0,0,0,0,0,0,0,0,0,0],"split_type":[0,0,0,0,0,0,0,0,0,0,0,0,0,0,0,0,0,0,0,0,0,0,0,0,0,0,0,0,0],"sum_hessian":[9.2201925E5,7.6032056E5,1.6169867E5,6.376297E5,1.2269093E5,1.9189297E4,1.4250938E5,7.8714927E3,6.297582E5,9.5752984E4,2.6937943E4,1.9128545E4,6.0751873E1,4.029312E1,1.4246908E5,6.2715933E3,1.5998995E3,6.296967E5,6.148614E1,9.204391E4,3.7090813E3,7.6340737E3,1.9303871E4,1.12910185E1,1.9117254E4,3.9341694E1,2.1410177E1,4.494902E1,1.4242414E5],"tree_param":{"num_deleted":"0","num_feature":"34","num_nodes":"29","size_leaf_vector":"1"}},{"base_weights":[-6.2869936E-3,1.9810678E0,-5.639557E-1,9.0812045E-1,1.9921603E0,-4.8617128E-1,-5.845221E-1,7.292182E-1,1.6340579E0,2.0087903E0,1.3570551E0,-3.896007E-1,-5.3551006E-1,-5.675337E-1,-5.9052217E-1,4.0394474E-2,1.8643482E-2,4.0791117E-2,7.930539E-2,7.284492E-2,7.942667E-2,3.7093863E-2,8.3319165E-2,-1.6293447E-2,-3.7993335E-3,-2.0631146E-2,-1.693657E-2,-2.1637883E-2,-1.3284709E-2,-2.2445738E-2,-2.0923497E-2],"categories":[],"categories_nodes":[],"categories_segments":[],"categories_sizes":[],"default_left":[0,0,0,0,0,0,0,0,0,0,0,0,0,0,0,0,0,0,0,0,0,0,0,0,0,0,0,0,0,0,0],"id":18,"left_children":[1,3,5,7,9,11,13,15,17,19,21,23,25,27,29,-1,-1,-1,-1,-1,-1,-1,-1,-1,-1,-1,-1,-1,-1,-1,-1],"loss_changes":[1.0322223E6,2.4284375E3,1.1633906E3,2.7093774E2,2.1326875E3,7.245781E2,5.853125E1,1.3342511E2,1.0428381E2,1.472625E3,1.6400928E3,5.861387E2,6.893164E1,6.958203E1,6.8125E0,0E0,0E0,0E0,0E0,0E0,0E0,0E0,0E0,0E0,0E0,0E0,0E0,0E0,0E0,0E0,0E0],"parents":[2147483647,0,0,1,1,2,2,3,3,4,4,5,5,6,6,7,7,8,8,9,9,10,10,11,11,12,12,13,13,14,14],"right_children":[2,4,6,8,10,12,14,16,18,20,22,24,26,28,30,-1,-1,-1,-1,-1,-1,-1,-1,-1,-1,-1,-1,-1,-1,-1,-1],"split_conditions":[0E0,1E0,1E0,2.1277779E1,1E0,9.7222224E-2,2E0,1.24E1,9E0,-4.1634007E0,0E0,2.7643171E1,1.89E1,9.797222E1,8.501667E1,4.0394474E-2,1.8643482E-2,4.0791117E-2,7.930539E-2,7.284492E-2,7.942667E-2,3.7093863E-2,8.3319165E-2,-1.6293447E-2,-3.7993335E-3,-2.0631146E-2,-1.693657E-2,-2.1637883E-2,-1.3284709E-2,-2.2445738E-2,-2.0923497E-2],"split_indices":[22,2,22,1,24,18,22,19,0,1,23,1,30,1,1,0,0,0,0,0,0,0,0,0,0,0,0,0,0,0,0],"split_type":[0,0,0,0,0,0,0,0,0,0,0,0,0,0,0,0,0,0,0,0,0,0,0,0,0,0,0,0,0,0,0],"sum_hessian":[9.3136794E5,2.0408236E5,7.2728556E5,2.0885442E3,2.0199381E5,1.520858E5,5.751998E5,1.6760659E3,4.1247845E2,1.9683903E5,5.154775E3,5.142819E4,1.006576E5,1.5013648E5,4.250633E5,6.973271E2,9.787388E2,1.8504723E2,2.2743121E2,9.3477555E4,1.03361484E5,3.5435986E3,1.6111761E3,4.527437E4,6.15382E3,9.274087E4,7.9167373E3,1.4868211E5,1.45438E3,4.2071466E5,4.3486377E3],"tree_param":{"num_deleted":"0","num_feature":"34","num_nodes":"31","size_leaf_vector":"1"}},{"base_weights":[-4.3489938E-3,9.0809035E-1,-5.6721866E-1,-3.502082E-1,1.9661847E0,-5.1148087E-1,-5.868801E-1,-2.3924303E-1,-4.5605838E-1,4.8203766E-1,1.9808527E0,-4.093449E-1,-5.4651743E-1,-5.791328E-1,-5.9100676E-1,-4.7484464E-3,-1.3798587E-2,-1.8150793E-2,-1.4285691E-2,6.450294E-3,3.2600332E-2,7.705762E-2,6.530549E-2,-1.6792532E-2,-1.1356618E-2,-2.1080134E-2,-1.7490823E-2,-2.216002E-2,-2.1176433E-2,-2.1729961E-2,-2.245253E-2],"categories":[],"categories_nodes":[],"categories_segments":[],"categories_sizes":[],"default_left":[0,0,0,0,0,0,0,0,0,0,0,0,0,0,0,0,0,0,0,0,0,0,0,0,0,0,0,0,0,0,0],"id":19,"left_children":[1,3,5,7,9,11,13,15,17,19,21,23,25,27,29,-1,-1,-1,-1,-1,-1,-1,-1,-1,-1,-1,-1,-1,-1,-1,-1],"loss_changes":[4.773725E5,4.7214856E5,6.2990625E2,1.902627E3,4.193375E3,5.36375E2,1.3484375E1,1.1204819E3,1.4445508E2,2.2145801E2,2.3864375E3,1.3837012E2,8.11875E1,1.35625E1,4.375E-1,0E0,0E0,0E0,0E0,0E0,0E0,0E0,0E0,0E0,0E0,0E0,0E0,0E0,0E0,0E0,0E0],"parents":[2147483647,0,0,1,1,2,2,3,3,4,4,5,5,6,6,7,7,8,8,9,9,10,10,11,11,12,12,13,13,14,14],"right_children":[2,4,6,8,10,12,14,16,18,20,22,24,26,28,30,-1,-1,-1,-1,-1,-1,-1,-1,-1,-1,-1,-1,-1,-1,-1,-1],"split_conditions":[1E0,0E0,2E0,1.04E-1,1E0,9.7222224E-2,3E0,-2.5944445E0,1.3E1,1.24E1,1.85E1,5.4916086E0,1.79E1,1.78E1,1E0,-4.7484464E-3,-1.3798587E-2,-1.8150793E-2,-1.4285691E-2,6.450294E-3,3.2600332E-2,7.705762E-2,6.530549E-2,-1.6792532E-2,-1.1356618E-2,-2.1080134E-2,-1.7490823E-2,-2.216002E-2,-2.1176433E-2,-2.1729961E-2,-2.245253E-2],"split_indices":[22,22,22,18,2,18,22,1,0,21,31,1,30,30,2,0,0,0,0,0,0,0,0,0,0,0,0,0,0,0,0],"split_type":[0,0,0,0,0,0,0,0,0,0,0,0,0,0,0,0,0,0,0,0,0,0,0,0,0,0,0,0,0,0,0],"sum_hessian":[9.2949125E5,3.546256E5,5.748657E5,1.6198786E5,1.9263772E5,1.4990644E5,4.2495922E5,7.908363E4,8.290423E4,1.8853285E3,1.9075239E5,3.8290027E4,1.1161641E5,1.4770488E5,2.7725434E5,4.116918E4,3.7914453E4,6.514214E4,1.7762084E4,1.0305452E3,8.5478326E2,1.6124816E5,2.9504242E4,2.952587E4,8.764158E3,1.01619945E5,9.996463E3,1.2330333E5,2.4401545E4,1.522673E3,2.7573166E5],"tree_param":{"num_deleted":"0","num_feature":"34","num_nodes":"31","size_leaf_vector":"1"}},{"base_weights":[3.3762313E-3,4.8453942E-1,-5.6738216E-1,-4.579486E-1,2.0210595E0,-5.339546E-1,-5.854396E-1,-3.940198E-1,-5.108018E-1,6.4722544E-1,2.032536E0,-4.5004204E-1,-5.5220264E-1,-4.627139E-1,-5.8612317E-1,-1.8031823E-2,-1.1239077E-2,-2.0855667E-2,-1.7942691E-2,7.404854E-3,3.9200734E-2,7.184677E-2,7.974631E-2,-1.1039643E-2,-1.8611742E-2,-2.118499E-2,-1.8634822E-2,5.66585E-3,-2.1296585E-2,-2.2289017E-2,-1.968925E-2],"categories":[],"categories_nodes":[],"categories_segments":[],"categories_sizes":[],"default_left":[0,0,0,0,0,0,0,0,0,0,0,0,0,0,0,0,0,0,0,0,0,0,0,0,0,0,0,0,0,0,0],"id":20,"left_children":[1,3,5,7,9,11,13,15,17,19,21,23,25,27,29,-1,-1,-1,-1,-1,-1,-1,-1,-1,-1,-1,-1,-1,-1,-1,-1],"loss_changes":[2.5274508E5,7.23138E5,2.5401562E2,1.0457188E3,2.9929375E3,2.2601562E2,2.2851562E1,1.1092969E3,2.4904297E2,2.7374945E2,1.7765E3,1.6792188E2,4.129297E1,9.085181E1,1.24921875E1,0E0,0E0,0E0,0E0,0E0,0E0,0E0,0E0,0E0,0E0,0E0,0E0,0E0,0E0,0E0,0E0],"parents":[2147483647,0,0,1,1,2,2,3,3,4,4,5,5,6,6,7,7,8,8,9,9,10,10,11,11,12,12,13,13,14,14],"right_children":[2,4,6,8,10,12,14,16,18,20,22,24,26,28,30,-1,-1,-1,-1,-1,-1,-1,-1,-1,-1,-1,-1,-1,-1,-1,-1],"split_conditions":[2E0,1E0,3E0,1.04E-1,1E0,7.8947365E-2,1E0,0E0,0E0,-2.4227777E1,1.04E-1,1.5738161E-1,1.82E1,3.06E1,5.92E1,-1.8031823E-2,-1.1239077E-2,-2.0855667E-2,-1.7942691E-2,7.404854E-3,3.9200734E-2,7.184677E-2,7.974631E-2,-1.1039643E-2,-1.8611742E-2,-2.118499E-2,-1.8634822E-2,5.66585E-3,-2.1296585E-2,-2.2289017E-2,-1.968925E-2],"split_indices":[22,22,22,18,2,18,2,22,24,1,18,6,30,29,1,0,0,0,0,0,0,0,0,0,0,0,0,0,0,0,0],"split_type":[0,0,0,0,0,0,0,0,0,0,0,0,0,0,0,0,0,0,0,0,0,0,0,0,0,0,0,0,0,0,0],"sum_hessian":[9.203176E5,4.993519E5,4.2096572E5,3.0950466E5,1.8984725E5,1.4764908E5,2.7331666E5,1.4007667E5,1.6942797E5,1.5729203E3,1.8827433E5,2.6374582E4,1.2127449E5,1.514968E3,2.718017E5,7.686044E4,6.321624E4,8.488237E4,8.454559E4,7.232801E2,8.496402E2,6.0616453E4,1.2765788E5,5.2861543E3,2.1088428E4,1.1127017E5,1.0004322E4,2.0905687E2,1.3059111E3,2.690886E5,2.7131038E3],"tree_param":{"num_deleted":"0","num_feature":"34","num_nodes":"31","size_leaf_vector":"1"}},{"base_weights":[2.2934624E-3,-4.2345002E-1,4.5376906E-1,-4.9712032E-1,-2.688283E-1,1.7869593E0,-5.152974E-1,-5.0250876E-1,6.799523E-2,-4.8113324E-2,-3.621633E-1,1.2945045E0,1.9595249E0,-5.253471E-1,1.3824616E-1,-1.1439965E-3,-1.932634E-2,-6.293161E-3,1.2810953E-2,1.890354E-2,-4.032016E-3,-1.494166E-2,-4.168931E-3,-2.3891071E-3,5.1595487E-2,7.677807E-2,5.9909094E-2,-1.2391054E-2,-2.0690707E-2,2.8764293E-2,-1.947957E-2],"categories":[],"categories_nodes":[],"categories_segments":[],"categories_sizes":[],"default_left":[0,0,0,0,0,0,0,0,0,0,0,0,0,0,0,0,0,0,0,0,0,0,0,0,0,0,0,0,0,0,0],"id":21,"left_children":[1,3,5,7,9,11,13,15,17,19,21,23,25,27,29,-1,-1,-1,-1,-1,-1,-1,-1,-1,-1,-1,-1,-1,-1,-1,-1],"loss_changes":[1.7698938E5,5.3982344E3,5.773654E5,9.7740625E2,3.1504336E3,1.598475E4,1.6997109E3,9.459531E2,1.9079607E2,1.4397468E3,8.466133E2,4.2310547E3,3.291125E3,9.835E2,1.5798036E3,0E0,0E0,0E0,0E0,0E0,0E0,0E0,0E0,0E0,0E0,0E0,0E0,0E0,0E0,0E0,0E0],"parents":[2147483647,0,0,1,1,2,2,3,3,4,4,5,5,6,6,7,7,8,8,9,9,10,10,11,11,12,12,13,13,14,14],"right_children":[2,4,6,8,10,12,14,16,18,20,22,24,26,28,30,-1,-1,-1,-1,-1,-1,-1,-1,-1,-1,-1,-1,-1,-1,-1,-1],"split_conditions":[2E0,1E0,3E0,2E0,9.876543E-2,9.876543E-2,5.4177776E1,1E0,1.54E1,-7.3494446E1,1.3964286E1,1E0,1.8604651E-1,7.8947365E-2,2.264E2,-1.1439965E-3,-1.932634E-2,-6.293161E-3,1.2810953E-2,1.890354E-2,-4.032016E-3,-1.494166E-2,-4.168931E-3,-2.3891071E-3,5.1595487E-2,7.677807E-2,5.9909094E-2,-1.2391054E-2,-2.0690707E-2,2.8764293E-2,-1.947957E-2],"split_indices":[23,23,23,24,18,18,1,2,21,1,5,2,18,18,8,0,0,0,0,0,0,0,0,0,0,0,0,0,0,0,0],"split_type":[0,0,0,0,0,0,0,0,0,0,0,0,0,0,0,0,0,0,0,0,0,0,0,0,0,0,0,0,0,0,0],"sum_hessian":[9.2079856E5,4.7390453E5,4.4689403E5,3.2097416E5,1.5293036E5,1.8810666E5,2.5878739E5,3.1794256E5,3.031606E3,4.545072E4,1.0747964E5,4.8812293E4,1.3929436E5,2.5486828E5,3.919097E3,4.183313E3,3.1375925E5,1.6231658E3,1.4084401E3,4.3683774E3,4.1082344E4,9.565294E4,1.1826709E4,2.193113E3,4.661918E4,1.199033E5,1.9391064E4,2.2605352E4,2.3226294E5,2.0089749E3,1.9101222E3],"tree_param":{"num_deleted":"0","num_feature":"34","num_nodes":"31","size_leaf_vector":"1"}},{"base_weights":[3.161E-3,-4.9520695E-1,9.5455486E-1,-5.3630644E-1,-3.6210907E-1,2.0155244E0,-5.535137E-1,-5.390403E-1,2.751126E-1,-1.038985E-1,-4.5300514E-1,2.0824008E0,1.7734085E0,1.3241131E0,-5.5443144E-1,-5.728808E-3,-2.065133E-2,2.1655696E-2,-7.4534044E-3,2.6782001E-3,-1.0579823E-2,-1.9624094E-2,-1.1851374E-2,7.986322E-2,5.5696815E-2,9.000139E-2,6.3952416E-2,8.414088E-2,-2.2421667E-2,9.063578E-3,-2.1141702E-2],"categories":[],"categories_nodes":[],"categories_segments":[],"categories_sizes":[],"default_left":[0,0,0,0,0,0,0,0,0,0,0,0,0,0,0,0,0,0,0,0,0,0,0,0,0,0,0,0,0,0,0],"id":22,"left_children":[1,3,5,7,9,11,13,15,17,19,21,23,25,27,29,-1,-1,-1,-1,-1,-1,-1,-1,-1,-1,-1,-1,-1,-1,-1,-1],"loss_changes":[4.360818E5,3.3015781E3,5.0586566E5,1.0230625E3,3.3422305E3,3.004125E3,2.2520703E2,8.296406E2,2.1539319E2,1.1293193E3,9.450293E2,1.8059375E3,2.1472812E3,1.0933723E2,2.2451953E2,0E0,0E0,0E0,0E0,0E0,0E0,0E0,0E0,0E0,0E0,0E0,0E0,0E0,0E0,0E0,0E0],"parents":[2147483647,0,0,1,1,2,2,3,3,4,4,5,5,6,6,7,7,8,8,9,9,10,10,11,11,12,12,13,13,14,14],"right_children":[2,4,6,8,10,12,14,16,18,20,22,24,26,28,30,-1,-1,-1,-1,-1,-1,-1,-1,-1,-1,-1,-1,-1,-1,-1,-1],"split_conditions":[3E0,2E0,4E0,3E0,9.876543E-2,3.3E1,9.9E0,1E0,9.876543E-2,-1.0133333E1,6.3446133E4,1.755E1,1.34E1,2.42E1,1E0,-5.728808E-3,-2.065133E-2,2.1655696E-2,-7.4534044E-3,2.6782001E-3,-1.0579823E-2,-1.9624094E-2,-1.1851374E-2,7.986322E-2,5.5696815E-2,9.000139E-2,6.3952416E-2,8.414088E-2,-2.2421667E-2,9.063578E-3,-2.1141702E-2],"split_indices":[22,23,22,24,18,27,20,2,18,1,15,5,32,26,2,0,0,0,0,0,0,0,0,0,0,0,0,0,0,0,0],"split_type":[0,0,0,0,0,0,0,0,0,0,0,0,0,0,0,0,0,0,0,0,0,0,0,0,0,0,0,0,0,0,0],"sum_hessian":[9.197235E5,6.035608E5,3.161627E5,4.6115822E5,1.4240262E5,1.8559275E5,1.3056992E5,4.5960975E5,1.5484666E3,3.7077203E4,1.05325414E5,1.454225E5,4.0170254E4,6.358632E1,1.30506336E5,5.4398936E3,4.5416984E5,9.523276E2,5.9613904E2,1.8550904E4,1.8526299E4,7.2568734E4,3.2756686E4,1.4081194E5,4.6105664E3,5.2546743E3,3.491558E4,4.3359295E1,2.0227022E1,3.558668E2,1.3015047E5],"tree_param":{"num_deleted":"0","num_feature":"34","num_nodes":"31","size_leaf_vector":"1"}},{"base_weights":[5.5792177E-4,-5.1068276E-1,2.2217124E0,-5.555429E-1,-2.797447E-1,2.3857448E0,2.200692E0,-1.8730783E-1,-5.602251E-1,-3.980083E-1,1.313038E-1,2.3908536E0,1.1346587E0,-2.2282429E-2,2.2013319E0,-1.9142864E-2,3.955892E-2,-2.1389043E-2,-8.824503E-3,-1.6522238E-2,1.9586539E-2,3.6398724E-2,-3.5505265E-3,-2.1958807E-2,9.086726E-2,-2.2444135E-2,9.102066E-2,3.0369425E-2,8.363176E-2],"categories":[],"categories_nodes":[],"categories_segments":[],"categories_sizes":[],"default_left":[0,0,0,0,0,0,0,0,0,0,0,0,0,0,0,0,0,0,0,0,0,0,0,0,0,0,0,0,0],"id":23,"left_children":[1,3,5,7,9,11,13,15,17,19,21,23,25,-1,27,-1,-1,-1,-1,-1,-1,-1,-1,-1,-1,-1,-1,-1,-1],"loss_changes":[1.0446631E6,7.7475E3,5.92E2,1.0796406E3,5.913215E3,1.2416406E2,2.725E2,3.0597117E3,5.8528125E2,3.1912588E3,5.052063E3,8.25E1,1.7467975E2,0E0,9.61875E1,0E0,0E0,0E0,0E0,0E0,0E0,0E0,0E0,0E0,0E0,0E0,0E0,0E0,0E0],"parents":[2147483647,0,0,1,1,2,2,3,3,4,4,5,5,6,6,7,7,8,8,9,9,10,10,11,11,12,12,14,14],"right_children":[2,4,6,8,10,12,14,16,18,20,22,24,26,-1,28,-1,-1,-1,-1,-1,-1,-1,-1,-1,-1,-1,-1,-1,-1],"split_conditions":[4E0,3E0,4E0,7.0422534E-3,3.3E1,5.4177776E1,9.9E0,3.57E1,2.15E1,1.8227272E1,1.48E1,9.6E0,7.7833336E1,-2.2282429E-2,7.0422534E-3,-1.9142864E-2,3.955892E-2,-2.1389043E-2,-8.824503E-3,-1.6522238E-2,1.9586539E-2,3.6398724E-2,-3.5505265E-3,-2.1958807E-2,9.086726E-2,-2.2444135E-2,9.102066E-2,3.0369425E-2,8.363176E-2],"split_indices":[22,24,23,18,29,1,20,28,6,6,30,19,1,0,18,0,0,0,0,0,0,0,0,0,0,0,0,0,0],"split_type":[0,0,0,0,0,0,0,0,0,0,0,0,0,0,0,0,0,0,0,0,0,0,0,0,0,0,0,0,0],"sum_hessian":[9.1996625E5,7.478375E5,1.7212872E5,6.261972E5,1.216403E5,1.9548494E4,1.5258023E5,7.8625527E3,6.183347E5,9.446236E4,2.7177936E4,1.9468732E4,7.9762596E1,3.495257E1,1.5254528E5,6.2516187E3,1.610934E3,6.1293794E5,5.3967183E3,9.078842E4,3.673934E3,5.808246E3,2.136969E4,9.253463E0,1.9459479E4,3.3752525E1,4.601007E1,4.9358913E1,1.5249592E5],"tree_param":{"num_deleted":"0","num_feature":"34","num_nodes":"29","size_leaf_vector":"1"}},{"base_weights":[-7.370938E-3,1.836229E0,-5.6090283E-1,1.8971436E0,1.6724652E0,-4.8175862E-1,-5.8181626E-1,1.8007189E0,1.9479616E0,1.7136186E0,9.4056875E-1,-3.8362238E-1,-5.320373E-1,-5.6457776E-1,-5.878801E-1,7.204598E-2,6.03348E-2,7.495841E-2,7.049044E-2,5.9574407E-2,7.100646E-2,2.1753553E-2,6.476892E-2,-1.6072242E-2,-3.6125467E-3,-2.0502383E-2,-1.677022E-2,-2.1525372E-2,-1.3096201E-2,-2.234445E-2,-2.0931793E-2],"categories":[],"categories_nodes":[],"categories_segments":[],"categories_sizes":[],"default_left":[0,0,0,0,0,0,0,0,0,0,0,0,0,0,0,0,0,0,0,0,0,0,0,0,0,0,0,0,0,0,0],"id":24,"left_children":[1,3,5,7,9,11,13,15,17,19,21,23,25,27,29,-1,-1,-1,-1,-1,-1,-1,-1,-1,-1,-1,-1,-1,-1,-1,-1],"loss_changes":[9.490395E5,2.141375E3,1.1837656E3,7.659375E2,1.75325E3,7.375781E2,5.9046875E1,1.1005938E3,2.395625E2,1.2459844E3,8.7171606E2,5.7736426E2,6.911914E1,6.865625E1,5.84375E0,0E0,0E0,0E0,0E0,0E0,0E0,0E0,0E0,0E0,0E0,0E0,0E0,0E0,0E0,0E0,0E0],"parents":[2147483647,0,0,1,1,2,2,3,3,4,4,5,5,6,6,7,7,8,8,9,9,10,10,11,11,12,12,13,13,14,14],"right_children":[2,4,6,8,10,12,14,16,18,20,22,24,26,28,30,-1,-1,-1,-1,-1,-1,-1,-1,-1,-1,-1,-1,-1,-1,-1,-1],"split_conditions":[0E0,1.64E1,1E0,1.04E-1,1E0,9.7222224E-2,2E0,3.6354992E4,1.89E1,-2.2833333E0,0E0,2.7643171E1,1.89E1,9.797222E1,8.501667E1,7.204598E-2,6.03348E-2,7.495841E-2,7.049044E-2,5.9574407E-2,7.100646E-2,2.1753553E-2,6.476892E-2,-1.6072242E-2,-3.6125467E-3,-2.0502383E-2,-1.677022E-2,-2.1525372E-2,-1.3096201E-2,-2.234445E-2,-2.0931793E-2],"split_indices":[22,30,22,18,24,18,22,15,21,1,23,1,30,1,1,0,0,0,0,0,0,0,0,0,0,0,0,0,0,0,0],"split_type":[0,0,0,0,0,0,0,0,0,0,0,0,0,0,0,0,0,0,0,0,0,0,0,0,0,0,0,0,0,0,0],"sum_hessian":[9.2998225E5,2.14746E5,7.1523625E5,1.5652202E5,5.8223977E4,1.494957E5,5.6574056E5,5.4024094E4,1.0249793E5,5.512405E4,3.0999272E3,5.064566E4,9.885004E4,1.4722583E5,4.1851472E5,3.7193535E4,1.6830559E4,8.029256E4,2.2205363E4,2.8532734E4,2.6591314E4,2.0933186E3,1.00660864E3,4.4544867E4,6.100795E3,9.107051E4,7.7795312E3,1.458166E5,1.4092362E3,4.1417697E5,4.337745E3],"tree_param":{"num_deleted":"0","num_feature":"34","num_nodes":"31","size_leaf_vector":"1"}},{"base_weights":[-3.6176643E-3,6.967363E-1,-5.119895E-1,-1.6193428E-3,1.374551E0,-3.6730134E-1,-5.708064E-1,1.6407001E-1,-1.7468779E-1,1.02499E0,1.6057725E0,-1.8173751E-1,-4.6160212E-1,-3.2668513E-1,-5.726262E-1,1.1799519E-2,-1.5607483E-3,-9.015479E-3,1.6474139E-3,4.2474717E-2,1.6906919E-2,6.644384E-2,5.261743E-2,-1.0184649E-2,2.01253E-3,-1.8808022E-2,-1.2179004E-2,5.1436406E-2,-1.3326433E-2,-2.1007271E-2,-2.2214288E-2],"categories":[],"categories_nodes":[],"categories_segments":[],"categories_sizes":[],"default_left":[0,0,0,0,0,0,0,0,0,0,0,0,0,0,0,0,0,0,0,0,0,0,0,0,0,0,0,0,0,0,0],"id":25,"left_children":[1,3,5,7,9,11,13,15,17,19,21,23,25,27,29,-1,-1,-1,-1,-1,-1,-1,-1,-1,-1,-1,-1,-1,-1,-1,-1],"loss_changes":[3.2940447E5,1.8419242E5,4.5619375E3,5.4958735E3,1.59598125E4,2.7111504E3,1.6925781E2,2.944511E3,1.2809226E3,4.2507734E3,3.7600625E3,1.0586792E3,4.859297E2,1.1469754E2,9.0296875E1,0E0,0E0,0E0,0E0,0E0,0E0,0E0,0E0,0E0,0E0,0E0,0E0,0E0,0E0,0E0,0E0],"parents":[2147483647,0,0,1,1,2,2,3,3,4,4,5,5,6,6,7,7,8,8,9,9,10,10,11,11,12,12,13,13,14,14],"right_children":[2,4,6,8,10,12,14,16,18,20,22,24,26,28,30,-1,-1,-1,-1,-1,-1,-1,-1,-1,-1,-1,-1,-1,-1,-1,-1],"split_conditions":[1E0,0E0,2E0,1.04E-1,1.04E-1,1.04E-1,1.07E1,-2.5944445E0,1.3E1,5.664986E4,6.3446133E4,3.3555555E0,7.572222E0,1.9485936E4,3E0,1.1799519E-2,-1.5607483E-3,-9.015479E-3,1.6474139E-3,4.2474717E-2,1.6906919E-2,6.644384E-2,5.261743E-2,-1.0184649E-2,2.01253E-3,-1.8808022E-2,-1.2179004E-2,5.1436406E-2,-1.3326433E-2,-2.1007271E-2,-2.2214288E-2],"split_indices":[24,24,24,18,18,18,20,1,0,15,15,1,1,15,24,0,0,0,0,0,0,0,0,0,0,0,0,0,0,0,0],"split_type":[0,0,0,0,0,0,0,0,0,0,0,0,0,0,0,0,0,0,0,0,0,0,0,0,0,0,0,0,0,0,0],"sum_hessian":[9.2518825E5,3.891202E5,5.360681E5,1.9165622E5,1.9746397E5,1.5493467E5,3.8113344E5,9.791552E4,9.37407E4,7.861505E4,1.18848914E5,5.2205742E4,1.0272892E5,2.820566E3,3.7831288E5,5.711169E4,4.0803832E4,7.28156E4,2.0925096E4,6.772437E4,1.0890676E4,7.199406E4,4.6854855E4,3.8159984E4,1.4045759E4,8.297456E4,1.9754363E4,3.9745533E1,2.7808203E3,1.4539277E5,2.329201E5],"tree_param":{"num_deleted":"0","num_feature":"34","num_nodes":"31","size_leaf_vector":"1"}},{"base_weights":[2.7193297E-3,4.67484E-1,-5.6441325E-1,-4.5321295E-1,1.8704585E0,-5.3088766E-1,-5.826005E-1,-3.8840944E-1,-5.070297E-1,6.272172E-1,1.8805624E0,-4.4597065E-1,-5.4946595E-1,-4.5249906E-1,-5.8329624E-1,-1.7713932E-2,-1.0843812E-2,-2.07552E-2,-1.7758237E-2,1.1408161E-2,3.8774464E-2,8.529619E-2,7.04192E-2,-1.09780505E-2,-1.8435102E-2,-2.0895014E-2,5.340579E-3,7.913208E-3,-2.1202935E-2,-2.123207E-2,-2.2192E-2],"categories":[],"categories_nodes":[],"categories_segments":[],"categories_sizes":[],"default_left":[0,0,0,0,0,0,0,0,0,0,0,0,0,0,0,0,0,0,0,0,0,0,0,0,0,0,0,0,0,0,0],"id":26,"left_children":[1,3,5,7,9,11,13,15,17,19,21,23,25,27,29,-1,-1,-1,-1,-1,-1,-1,-1,-1,-1,-1,-1,-1,-1,-1,-1],"loss_changes":[2.4193728E5,6.5162825E5,2.5198438E2,1.0621875E3,2.5105E3,2.293086E2,2.4179688E1,1.1085898E3,2.5889844E2,2.0728394E2,1.9259375E3,1.6125732E2,5.26875E1,9.971982E1,6.109375E0,0E0,0E0,0E0,0E0,0E0,0E0,0E0,0E0,0E0,0E0,0E0,0E0,0E0,0E0,0E0,0E0],"parents":[2147483647,0,0,1,1,2,2,3,3,4,4,5,5,6,6,7,7,8,8,9,9,10,10,11,11,12,12,13,13,14,14],"right_children":[2,4,6,8,10,12,14,16,18,20,22,24,26,28,30,-1,-1,-1,-1,-1,-1,-1,-1,-1,-1,-1,-1,-1,-1,-1,-1],"split_conditions":[2E0,1E0,3E0,1.04E-1,1E0,7.8947365E-2,1E0,0E0,0E0,3.26E1,1E0,1.5738161E-1,3.154E2,3.06E1,1.2462687E-1,-1.7713932E-2,-1.0843812E-2,-2.07552E-2,-1.7758237E-2,1.1408161E-2,3.8774464E-2,8.529619E-2,7.04192E-2,-1.09780505E-2,-1.8435102E-2,-2.0895014E-2,5.340579E-3,7.913208E-3,-2.1202935E-2,-2.123207E-2,-2.2192E-2],"split_indices":[22,22,22,18,2,18,2,23,24,29,23,6,7,29,5,0,0,0,0,0,0,0,0,0,0,0,0,0,0,0,0],"split_type":[0,0,0,0,0,0,0,0,0,0,0,0,0,0,0,0,0,0,0,0,0,0,0,0,0,0,0,0,0,0,0],"sum_hessian":[9.1787775E5,5.0446728E5,4.1341047E5,3.045848E5,1.9988248E5,1.45398E5,2.6801244E5,1.38188E5,1.663968E5,1.6115186E3,1.9827097E5,2.6101521E4,1.19296484E5,1.4266855E3,2.6658575E5,7.8634266E4,5.9553734E4,8.3313914E4,8.308288E4,8.8066516E2,7.3085333E2,1.3477535E4,1.8479344E5,5.2351533E3,2.086637E4,1.1918605E5,1.10432205E2,1.9671417E2,1.2299714E3,1.0084766E4,2.56501E5],"tree_param":{"num_deleted":"0","num_feature":"34","num_nodes":"31","size_leaf_vector":"1"}},{"base_weights":[1.6637248E-3,-4.9757698E-1,4.79743E-1,-5.365744E-1,-4.1370612E-1,1.8745595E0,-5.5121297E-1,-9.007609E-2,-5.424575E-1,-2.9544982E-1,-4.712583E-1,3.2711896E-1,1.8931774E0,-4.4331238E-1,-5.635707E-1,-7.818074E-3,2.43305E-2,-2.0615457E-2,5.828025E-2,1.5397462E-2,-1.19155E-2,-1.1686457E-2,-1.8613562E-2,-1.5376394E-2,4.141504E-2,6.735588E-2,7.546121E-2,-3.7448392E-3,-1.7625235E-2,-2.0536343E-2,-2.2235515E-2],"categories":[],"categories_nodes":[],"categories_segments":[],"categories_sizes":[],"default_left":[0,0,0,0,0,0,0,0,0,0,0,0,0,0,0,0,0,0,0,0,0,0,0,0,0,0,0,0,0,0,0],"id":27,"left_children":[1,3,5,7,9,11,13,15,17,19,21,23,25,27,29,-1,-1,-1,-1,-1,-1,-1,-1,-1,-1,-1,-1,-1,-1,-1,-1],"loss_changes":[2.1923294E5,1.4695625E3,6.7472456E5,8.0564844E2,9.7057227E2,5.745125E3,3.5967188E2,3.37393E2,1.8147656E2,5.97187E2,2.947129E2,1.3246765E3,2.20775E3,1.9791943E2,1.2094531E2,0E0,0E0,0E0,0E0,0E0,0E0,0E0,0E0,0E0,0E0,0E0,0E0,0E0,0E0,0E0,0E0],"parents":[2147483647,0,0,1,1,2,2,3,3,4,4,5,5,6,6,7,7,8,8,9,9,10,10,11,11,12,12,13,13,14,14],"right_children":[2,4,6,8,10,12,14,16,18,20,22,24,26,28,30,-1,-1,-1,-1,-1,-1,-1,-1,-1,-1,-1,-1,-1,-1,-1,-1],"split_conditions":[2E0,1E0,3E0,1E0,1.04E-1,1E0,7.8947365E-2,1E0,2.44E1,1E0,4.3333334E-1,-5E-1,1.7699115E-1,1E0,4E0,-7.818074E-3,2.43305E-2,-2.0615457E-2,5.828025E-2,1.5397462E-2,-1.19155E-2,-1.1686457E-2,-1.8613562E-2,-1.5376394E-2,4.141504E-2,6.735588E-2,7.546121E-2,-3.7448392E-3,-1.7625235E-2,-2.0536343E-2,-2.2235515E-2],"split_indices":[22,23,22,2,18,2,18,13,21,2,11,13,18,2,22,0,0,0,0,0,0,0,0,0,0,0,0,0,0,0,0],"split_type":[0,0,0,0,0,0,0,0,0,0,0,0,0,0,0,0,0,0,0,0,0,0,0,0,0,0,0,0,0,0,0],"sum_hessian":[9.185348E5,4.4932312E5,4.6921172E5,3.067104E5,1.4261272E5,1.9941539E5,2.697963E5,3.9887183E3,3.027217E5,4.6685883E4,9.5926836E4,2.37079E3,1.9704461E5,2.7725209E4,2.4207111E5,3.4433972E3,5.453211E2,3.0267988E5,4.1802193E1,1.1847998E3,4.5501082E4,9.880534E3,8.60463E4,1.2102672E3,1.1605227E3,8.6340086E4,1.10704516E5,1.5713186E3,2.615389E4,1.1811406E5,1.2395705E5],"tree_param":{"num_deleted":"0","num_feature":"34","num_nodes":"31","size_leaf_vector":"1"}},{"base_weights":[2.2038126E-3,-4.921249E-1,9.074187E-1,-5.3306895E-1,-3.607242E-1,1.8657123E0,-5.5044043E-1,-5.3566116E-1,2.3494433E-1,-1.1025423E-1,-4.4941357E-1,1.9281797E0,1.6294725E0,3.5009995E-1,-5.5249053E-1,-6.4250543E-3,-2.0514477E-2,3.282436E-2,7.843008E-4,2.0973054E-3,-1.0527881E-2,-1.9507697E-2,-1.1700456E-2,7.38758E-2,5.44645E-2,4.8606407E-2,6.6737145E-2,-2.271753E-2,8.468995E-2,3.761252E-2,-2.1029443E-2],"categories":[],"categories_nodes":[],"categories_segments":[],"categories_sizes":[],"default_left":[0,0,0,0,0,0,0,0,0,0,0,0,0,0,0,0,0,0,0,0,0,0,0,0,0,0,0,0,0,0,0],"id":28,"left_children":[1,3,5,7,9,11,13,15,17,19,21,23,25,27,29,-1,-1,-1,-1,-1,-1,-1,-1,-1,-1,-1,-1,-1,-1,-1,-1],"loss_changes":[4.1088784E5,3.1952344E3,4.5310578E5,9.0153125E2,3.1343105E3,2.887E3,2.3753516E2,7.320703E2,2.054133E2,1.01907275E3,9.4522656E2,1.281125E3,1.8250312E3,5.2139404E2,2.2871484E2,0E0,0E0,0E0,0E0,0E0,0E0,0E0,0E0,0E0,0E0,0E0,0E0,0E0,0E0,0E0,0E0],"parents":[2147483647,0,0,1,1,2,2,3,3,4,4,5,5,6,6,7,7,8,8,9,9,10,10,11,11,12,12,13,13,14,14],"right_children":[2,4,6,8,10,12,14,16,18,20,22,24,26,28,30,-1,-1,-1,-1,-1,-1,-1,-1,-1,-1,-1,-1,-1,-1,-1,-1],"split_conditions":[3E0,2E0,4E0,3E0,9.876543E-2,3.3E1,7.0422534E-3,7.0422534E-3,0E0,-1.0133333E1,6.3446133E4,1.755E1,9.7222224E-2,8.660254E-1,9.9E0,-6.4250543E-3,-2.0514477E-2,3.282436E-2,7.843008E-4,2.0973054E-3,-1.0527881E-2,-1.9507697E-2,-1.1700456E-2,7.38758E-2,5.44645E-2,4.8606407E-2,6.6737145E-2,-2.271753E-2,8.468995E-2,3.761252E-2,-2.1029443E-2],"split_indices":[22,23,22,24,18,28,18,18,23,1,15,5,18,12,20,0,0,0,0,0,0,0,0,0,0,0,0,0,0,0,0],"split_type":[0,0,0,0,0,0,0,0,0,0,0,0,0,0,0,0,0,0,0,0,0,0,0,0,0,0,0,0,0,0,0],"sum_hessian":[9.182386E5,5.939103E5,3.2432828E5,4.5281397E5,1.4109636E5,1.9569328E5,1.2863501E5,4.5129084E5,1.5231277E3,3.6896535E4,1.0419983E5,1.5476708E5,4.092619E4,2.920605E2,1.28342945E5,5.385132E3,4.459057E5,3.8672726E2,1.1364004E3,1.8528531E4,1.8368004E4,7.166924E4,3.2530582E4,1.4969122E5,5.0758633E3,1.0934806E4,2.9991385E4,1.9425783E2,9.780267E1,9.5777626E1,1.2824717E5],"tree_param":{"num_deleted":"0","num_feature":"34","num_nodes":"31","size_leaf_vector":"1"}},{"base_weights":[2.0254022E-3,-5.046443E-1,2.0469358E0,-5.54786E-1,-2.8056914E-1,2.188636E0,2.0282202E0,-1.802244E-1,-5.595586E-1,-4.0323263E-1,1.20149046E-1,2.1939526E0,9.3343544E-1,2.028865E0,-2.2206318E-2,-1.9781206E-2,3.913264E-2,-2.139193E-2,-5.365608E-3,-1.6466504E-2,1.8629074E-2,1.4416238E-2,-1.0921918E-2,8.416673E-2,8.163692E-2,-2.24289E-2,8.4061354E-2,2.3212772E-2,7.708265E-2],"categories":[],"categories_nodes":[],"categories_segments":[],"categories_sizes":[],"default_left":[0,0,0,0,0,0,0,0,0,0,0,0,0,0,0,0,0,0,0,0,0,0,0,0,0,0,0,0,0],"id":29,"left_children":[1,3,5,7,9,11,13,15,17,19,21,23,25,27,-1,-1,-1,-1,-1,-1,-1,-1,-1,-1,-1,-1,-1,-1,-1],"loss_changes":[9.503386E5,8.259156E3,4.8175E2,1.0737656E3,6.607035E3,1.4117969E2,2.715E2,3.1157642E3,9.004375E2,2.7852578E3,3.3314927E3,1.9351562E1,1.7609502E2,1.135625E2,0E0,0E0,0E0,0E0,0E0,0E0,0E0,0E0,0E0,0E0,0E0,0E0,0E0,0E0,0E0],"parents":[2147483647,0,0,1,1,2,2,3,3,4,4,5,5,6,6,7,7,8,8,9,9,10,10,11,11,12,12,13,13],"right_children":[2,4,6,8,10,12,14,16,18,20,22,24,26,28,-1,-1,-1,-1,-1,-1,-1,-1,-1,-1,-1,-1,-1,-1,-1],"split_conditions":[4E0,3E0,4E0,1E0,3.3E1,5.4177776E1,2.398E2,3.57E1,2.15E1,1.8227272E1,-8.922222E0,3.52E1,7E0,1E0,-2.2206318E-2,-1.9781206E-2,3.913264E-2,-2.139193E-2,-5.365608E-3,-1.6466504E-2,1.8629074E-2,1.4416238E-2,-1.0921918E-2,8.416673E-2,8.163692E-2,-2.24289E-2,8.4061354E-2,2.3212772E-2,7.708265E-2],"split_indices":[22,23,23,2,27,1,8,28,6,6,1,27,0,2,0,0,0,0,0,0,0,0,0,0,0,0,0,0,0],"split_type":[0,0,0,0,0,0,0,0,0,0,0,0,0,0,0,0,0,0,0,0,0,0,0,0,0,0,0,0,0],"sum_hessian":[9.1723144E5,7.3509606E5,1.8213536E5,6.0068025E5,1.344158E5,2.1245715E4,1.6088964E5,7.5575293E3,5.9312275E5,1.0291315E5,3.1502652E4,2.1155895E4,8.982024E1,1.6085E5,3.9639534E1,5.898261E3,1.659268E3,5.880205E5,5.1022207E3,9.95403E4,3.3728503E3,1.925311E4,1.2249544E4,1.4185114E4,6.970781E3,4.1067944E1,4.8752296E1,5.6808693E1,1.6079319E5],"tree_param":{"num_deleted":"0","num_feature":"34","num_nodes":"29","size_leaf_vector":"1"}},{"base_weights":[-6.25017E-3,1.7158383E0,-5.579218E-1,7.9286164E-1,1.7250608E0,-4.7932053E-1,-5.7893586E-1,6.3260144E-1,1.4482265E0,1.773489E0,1.5909245E0,-3.8166893E-1,-5.297678E-1,-5.614056E-1,-5.8512104E-1,3.0853663E-2,9.588705E-3,3.672619E-2,6.981991E-2,6.432197E-2,6.895031E-2,4.287595E-2,6.2308013E-2,-1.598869E-2,-3.7394082E-3,-2.0419043E-2,-1.6684078E-2,-2.1407168E-2,-1.2910237E-2,-2.2240937E-2,-2.0696118E-2],"categories":[],"categories_nodes":[],"categories_segments":[],"categories_sizes":[],"default_left":[0,0,0,0,0,0,0,0,0,0,0,0,0,0,0,0,0,0,0,0,0,0,0,0,0,0,0,0,0,0,0],"id":30,"left_children":[1,3,5,7,9,11,13,15,17,19,21,23,25,27,29,-1,-1,-1,-1,-1,-1,-1,-1,-1,-1,-1,-1,-1,-1,-1,-1],"loss_changes":[8.786145E5,1.909625E3,1.1568594E3,2.3294824E2,1.442375E3,7.2785156E2,5.9828125E1,1.2185101E2,8.133295E1,5.4509375E2,1.3467344E3,5.597632E2,6.878711E1,6.967578E1,6.8125E0,0E0,0E0,0E0,0E0,0E0,0E0,0E0,0E0,0E0,0E0,0E0,0E0,0E0,0E0,0E0,0E0],"parents":[2147483647,0,0,1,1,2,2,3,3,4,4,5,5,6,6,7,7,8,8,9,9,10,10,11,11,12,12,13,13,14,14],"right_children":[2,4,6,8,10,12,14,16,18,20,22,24,26,28,30,-1,-1,-1,-1,-1,-1,-1,-1,-1,-1,-1,-1,-1,-1,-1,-1],"split_conditions":[0E0,1E0,1E0,2.1277779E1,1.64E1,9.7222224E-2,2E0,1.2E1,9E0,1.04E-1,1.54E1,2.7643171E1,1.89E1,9.797222E1,8.501667E1,3.0853663E-2,9.588705E-3,3.672619E-2,6.981991E-2,6.432197E-2,6.895031E-2,4.287595E-2,6.2308013E-2,-1.598869E-2,-3.7394082E-3,-2.0419043E-2,-1.6684078E-2,-2.1407168E-2,-1.2910237E-2,-2.2240937E-2,-2.0696118E-2],"split_indices":[22,2,22,1,30,18,22,0,0,18,32,1,30,1,1,0,0,0,0,0,0,0,0,0,0,0,0,0,0,0,0],"split_type":[0,0,0,0,0,0,0,0,0,0,0,0,0,0,0,0,0,0,0,0,0,0,0,0,0,0,0,0,0,0,0],"sum_hessian":[9.248301E5,2.2438702E5,7.004431E5,2.2201643E3,2.2216684E5,1.4776102E5,5.5268206E5,1.7843835E3,4.3578076E2,1.6323084E5,5.8935996E4,5.0333043E4,9.742798E4,1.4415127E5,4.0853084E5,1.2114492E3,5.729343E2,1.9548032E2,2.4030045E2,5.5965207E4,1.0726564E5,5.699284E3,5.323671E4,4.420418E4,6.128865E3,8.9691375E4,7.736595E3,1.4274366E5,1.4076029E3,4.0431878E5,4.2120625E3],"tree_param":{"num_deleted":"0","num_feature":"34","num_nodes":"31","size_leaf_vector":"1"}},{"base_weights":[-3.6394515E-3,8.3566207E-1,-5.617921E-1,-3.445181E-1,1.7342145E0,-5.057219E-1,-5.818437E-1,-2.371409E-1,-4.4888476E-1,4.354509E-1,1.7466619E0,-4.048748E-1,-5.4099363E-1,-5.7455164E-1,-5.857793E-1,1.9565683E-2,-9.710615E-3,-2.047391E-2,-1.6323267E-2,-1.8354537E-3,2.5141314E-2,6.777851E-2,5.837347E-2,-1.5767623E-2,-2.0714418E-3,-2.0873541E-2,-1.7295426E-2,-1.8325798E-2,-2.1863116E-2,-2.148031E-2,-2.2254387E-2],"categories":[],"categories_nodes":[],"categories_segments":[],"categories_sizes":[],"default_left":[0,0,0,0,0,0,0,0,0,0,0,0,0,0,0,0,0,0,0,0,0,0,0,0,0,0,0,0,0,0,0],"id":31,"left_children":[1,3,5,7,9,11,13,15,17,19,21,23,25,27,29,-1,-1,-1,-1,-1,-1,-1,-1,-1,-1,-1,-1,-1,-1,-1,-1],"loss_changes":[4.32535E5,3.9107278E5,6.233906E2,1.7863984E3,3.3845625E3,5.1953125E2,1.1625E1,1.0941807E3,1.393916E2,2.1778748E2,1.6421875E3,1.3580713E2,7.915625E1,1.365625E1,5.15625E-1,0E0,0E0,0E0,0E0,0E0,0E0,0E0,0E0,0E0,0E0,0E0,0E0,0E0,0E0,0E0,0E0],"parents":[2147483647,0,0,1,1,2,2,3,3,4,4,5,5,6,6,7,7,8,8,9,9,10,10,11,11,12,12,13,13,14,14],"right_children":[2,4,6,8,10,12,14,16,18,20,22,24,26,28,30,-1,-1,-1,-1,-1,-1,-1,-1,-1,-1,-1,-1,-1,-1,-1,-1],"split_conditions":[1E0,0E0,2E0,1.04E-1,1E0,9.7222224E-2,3E0,1E0,2E0,1.11E1,1.85E1,5.034483E0,1.79E1,1.07E1,1E0,1.9565683E-2,-9.710615E-3,-2.047391E-2,-1.6323267E-2,-1.8354537E-3,2.5141314E-2,6.777851E-2,5.837347E-2,-1.5767623E-2,-2.0714418E-3,-2.0873541E-2,-1.7295426E-2,-1.8325798E-2,-2.1863116E-2,-2.148031E-2,-2.2254387E-2],"split_indices":[22,22,22,18,2,18,22,2,0,21,31,5,30,19,2,0,0,0,0,0,0,0,0,0,0,0,0,0,0,0,0],"split_type":[0,0,0,0,0,0,0,0,0,0,0,0,0,0,0,0,0,0,0,0,0,0,0,0,0,0,0,0,0,0,0],"sum_hessian":[9.233152E5,3.6877828E5,5.5453694E5,1.5940808E5,2.0937019E5,1.4607508E5,4.0846184E5,7.85713E4,8.083679E4,1.98766E3,2.0738253E5,3.7852555E4,1.0822252E5,1.4319269E5,2.6526916E5,1.886898E3,7.66844E4,1.4157643E4,6.667914E4,6.338201E2,1.3538398E3,1.7576203E5,3.1620502E4,3.6777395E4,1.0751588E3,9.8402195E4,9.820324E3,1.6028127E3,1.4158988E5,1.5018345E3,2.637673E5],"tree_param":{"num_deleted":"0","num_feature":"34","num_nodes":"31","size_leaf_vector":"1"}},{"base_weights":[3.0270084E-3,4.5189965E-1,-5.61517E-1,-4.5041195E-1,1.7445498E0,-5.275031E-1,-5.8000237E-1,-3.8636738E-1,-5.0382423E-1,6.184372E-1,1.7533125E0,-4.4136512E-1,-5.4637516E-1,-5.818875E-1,-5.406603E-1,-1.7618604E-2,-1.0837893E-2,-2.0642731E-2,-1.763368E-2,8.233716E-3,3.5770454E-2,7.914478E-2,6.5678224E-2,-1.0611465E-2,-1.8317183E-2,-2.0777162E-2,4.506705E-3,-4.2012422E-3,-2.2103725E-2,-1.9798577E-3,-2.0917991E-2],"categories":[],"categories_nodes":[],"categories_segments":[],"categories_sizes":[],"default_left":[0,0,0,0,0,0,0,0,0,0,0,0,0,0,0,0,0,0,0,0,0,0,0,0,0,0,0,0,0,0,0],"id":32,"left_children":[1,3,5,7,9,11,13,15,17,19,21,23,25,27,29,-1,-1,-1,-1,-1,-1,-1,-1,-1,-1,-1,-1,-1,-1,-1,-1],"loss_changes":[2.3180438E5,5.94358E5,2.5467188E2,1.0265156E3,2.0668125E3,2.3184766E2,1.9375E1,1.0682793E3,2.5665234E2,2.1003601E2,1.66025E3,1.6974023E2,4.8882812E1,4.7109375E0,5.8944824E1,0E0,0E0,0E0,0E0,0E0,0E0,0E0,0E0,0E0,0E0,0E0,0E0,0E0,0E0,0E0,0E0],"parents":[2147483647,0,0,1,1,2,2,3,3,4,4,5,5,6,6,7,7,8,8,9,9,10,10,11,11,12,12,13,13,14,14],"right_children":[2,4,6,8,10,12,14,16,18,20,22,24,26,28,30,-1,-1,-1,-1,-1,-1,-1,-1,-1,-1,-1,-1,-1,-1,-1,-1],"split_conditions":[2E0,1E0,3E0,1.04E-1,1E0,7.8947365E-2,2.7643171E1,0E0,0E0,-2.4227777E1,1E0,1.5738161E-1,3.154E2,7.6599E-2,1E0,-1.7618604E-2,-1.0837893E-2,-2.0642731E-2,-1.763368E-2,8.233716E-3,3.5770454E-2,7.914478E-2,6.5678224E-2,-1.0611465E-2,-1.8317183E-2,-2.0777162E-2,4.506705E-3,-4.2012422E-3,-2.2103725E-2,-1.9798577E-3,-2.0917991E-2],"split_indices":[22,22,22,18,2,18,1,23,24,1,23,6,7,4,2,0,0,0,0,0,0,0,0,0,0,0,0,0,0,0,0],"split_type":[0,0,0,0,0,0,0,0,0,0,0,0,0,0,0,0,0,0,0,0,0,0,0,0,0,0,0,0,0,0,0],"sum_hessian":[9.1474575E5,5.0957744E5,4.051683E5,3.000989E5,2.0947855E5,1.426658E5,2.625025E5,1.3646794E5,1.6363097E5,1.6176E3,2.0786094E5,2.5640725E4,1.1702508E5,2.5049588E5,1.2006637E4,7.723748E4,5.923046E4,8.175214E4,8.187883E4,7.215801E2,8.9601984E2,1.418267E4,1.9367827E5,5.166494E3,2.047423E4,1.1691475E5,1.10327156E2,2.1400045E1,2.5047447E5,2.4205972E2,1.1764577E4],"tree_param":{"num_deleted":"0","num_feature":"34","num_nodes":"31","size_leaf_vector":"1"}},{"base_weights":[1.3914208E-3,-4.941993E-1,4.6184137E-1,-5.353161E-1,-4.106241E-1,1.7452768E0,-5.4837406E-1,-5.395934E-1,-1.7022236E-1,5.103472E-1,-4.2026013E-1,3.5559344E-1,1.7608259E0,-9.6708655E-2,-5.5173856E-1,-7.1262154E-3,-2.0656405E-2,-1.333631E-2,3.6258358E-3,3.7434824E-2,4.577914E-3,-1.2112125E-2,-1.7881995E-2,3.4117658E-2,-1.9094018E-2,8.111168E-2,6.587711E-2,1.5694791E-2,-1.576194E-2,-1.9892665E-2,-2.2104483E-2],"categories":[],"categories_nodes":[],"categories_segments":[],"categories_sizes":[],"default_left":[0,0,0,0,0,0,0,0,0,0,0,0,0,0,0,0,0,0,0,0,0,0,0,0,0,0,0,0,0,0,0],"id":33,"left_children":[1,3,5,7,9,11,13,15,17,19,21,23,25,27,29,-1,-1,-1,-1,-1,-1,-1,-1,-1,-1,-1,-1,-1,-1,-1,-1],"loss_changes":[2.0902308E5,1.5159141E3,6.1563544E5,4.6171875E2,1.2910547E3,4.5188125E3,4.0373438E2,4.3516406E2,1.645791E2,2.79026E2,7.3735156E2,1.07803E3,2.0498125E3,3.18917E2,2.2316406E2,0E0,0E0,0E0,0E0,0E0,0E0,0E0,0E0,0E0,0E0,0E0,0E0,0E0,0E0,0E0,0E0],"parents":[2147483647,0,0,1,1,2,2,3,3,4,4,5,5,6,6,7,7,8,8,9,9,10,10,11,11,12,12,13,13,14,14],"right_children":[2,4,6,8,10,12,14,16,18,20,22,24,26,28,30,-1,-1,-1,-1,-1,-1,-1,-1,-1,-1,-1,-1,-1,-1,-1,-1],"split_conditions":[2E0,1E0,3E0,2E0,1E0,1E0,1.08E1,1E0,1.56E1,8E0,1.04E-1,3.55E1,2E0,1.2462236E-1,4E0,-7.1262154E-3,-2.0656405E-2,-1.333631E-2,3.6258358E-3,3.7434824E-2,4.577914E-3,-1.2112125E-2,-1.7881995E-2,3.4117658E-2,-1.9094018E-2,8.111168E-2,6.587711E-2,1.5694791E-2,-1.576194E-2,-1.9892665E-2,-2.2104483E-2],"split_indices":[22,22,22,24,2,2,20,2,21,0,18,28,23,4,22,0,0,0,0,0,0,0,0,0,0,0,0,0,0,0,0],"split_type":[0,0,0,0,0,0,0,0,0,0,0,0,0,0,0,0,0,0,0,0,0,0,0,0,0,0,0,0,0,0,0],"sum_hessian":[9.1598494E5,4.4115825E5,4.7482672E5,2.9568662E5,1.454716E5,2.0913255E5,2.6569416E5,2.922625E5,3.4241472E3,1.5061432E3,1.4396545E5,2.3141558E3,2.0681839E5,1.96461E3,2.6372956E5,3.4711426E3,2.8879134E5,2.0371152E3,1.387032E3,6.785436E2,8.275996E2,4.7881863E4,9.608359E4,1.4177863E3,8.963696E2,1.36481E4,1.931703E5,7.5495245E2,1.2096576E3,1.3682053E5,1.2690902E5],"tree_param":{"num_deleted":"0","num_feature":"34","num_nodes":"31","size_leaf_vector":"1"}},{"base_weights":[2.9414264E-3,-4.0339267E-1,7.996913E-1,-4.8075885E-1,-1.6876467E-1,1.5525453E0,-5.042363E-1,-5.2233607E-1,-3.879294E-1,2.0981818E-1,-3.1849742E-1,1.6562357E0,1.1766217E0,1.8839419E0,-5.0689906E-1,-2.0966064E-2,-1.7025368E-2,-2.8387962E-3,-1.6297132E-2,6.032152E-3,4.3805253E-2,-1.6452942E-2,-3.3772879E-3,6.3718215E-2,3.782625E-2,2.43807E-2,5.1270816E-2,7.599878E-2,4.887683E-2,6.1873667E-2,-1.9348582E-2],"categories":[],"categories_nodes":[],"categories_segments":[],"categories_sizes":[],"default_left":[0,0,0,0,0,0,0,0,0,0,0,0,0,0,0,0,0,0,0,0,0,0,0,0,0,0,0,0,0,0,0],"id":34,"left_children":[1,3,5,7,9,11,13,15,17,19,21,23,25,27,29,-1,-1,-1,-1,-1,-1,-1,-1,-1,-1,-1,-1,-1,-1,-1,-1],"loss_changes":[2.9630134E5,1.1002328E4,3.0344516E5,1.7591953E3,8.519991E3,7.6380938E3,7.1978516E2,6.914297E2,1.8162031E3,2.0499294E3,2.8351982E3,2.1582188E3,3.923621E3,8.059845E0,6.021758E2,0E0,0E0,0E0,0E0,0E0,0E0,0E0,0E0,0E0,0E0,0E0,0E0,0E0,0E0,0E0,0E0],"parents":[2147483647,0,0,1,1,2,2,3,3,4,4,5,5,6,6,7,7,8,8,9,9,10,10,11,11,12,12,13,13,14,14],"right_children":[2,4,6,8,10,12,14,16,18,20,22,24,26,28,30,-1,-1,-1,-1,-1,-1,-1,-1,-1,-1,-1,-1,-1,-1,-1,-1],"split_conditions":[3E0,2E0,4E0,1E0,9.876543E-2,3.3E1,8.772904E-2,6.3446133E4,-8.660254E-1,9.463209E4,6.3446133E4,2E1,1.48E1,5.7890125E-2,1E0,-2.0966064E-2,-1.7025368E-2,-2.8387962E-3,-1.6297132E-2,6.032152E-3,4.3805253E-2,-1.6452942E-2,-3.3772879E-3,6.3718215E-2,3.782625E-2,2.43807E-2,5.1270816E-2,7.599878E-2,4.887683E-2,6.1873667E-2,-1.9348582E-2],"split_indices":[23,23,23,24,18,29,5,15,12,15,15,6,32,16,2,0,0,0,0,0,0,0,0,0,0,0,0,0,0,0,0],"split_type":[0,0,0,0,0,0,0,0,0,0,0,0,0,0,0,0,0,0,0,0,0,0,0,0,0,0,0,0,0,0,0],"sum_hessian":[9.152254E5,6.061138E5,3.0911156E5,4.5581362E5,1.5030022E5,1.9596589E5,1.1314568E5,3.1481184E5,1.4100178E5,4.2597355E4,1.0770286E5,1.5359816E5,4.2367727E4,1.2578742E2,1.1301989E5,2.2486997E5,8.994186E4,1.636674E4,1.2463505E5,4.041272E4,2.1846382E3,7.1828914E4,3.5873945E4,1.4880228E5,4.7958857E3,1.0365249E4,3.2002479E4,1.04631035E2,2.1156384E1,1.3157672E2,1.1288831E5],"tree_param":{"num_deleted":"0","num_feature":"34","num_nodes":"31","size_leaf_vector":"1"}},{"base_weights":[7.3750443E-3,-5.020706E-1,1.900995E0,-5.503711E-1,-2.5711885E-1,2.0230696E0,1.8843001E0,-1.7769282E-1,-5.552933E-1,-3.7683743E-1,1.468048E-1,-2.236184E-2,2.0244832E0,-2.2108978E-2,1.8847677E0,-1.5107158E-2,4.5526262E-2,-2.1196485E-2,-9.371986E-3,-1.5745468E-2,1.9124942E-2,3.6968097E-2,-3.5028614E-3,7.833407E-2,7.598508E-2,2.497128E-2,7.16052E-2],"categories":[],"categories_nodes":[],"categories_segments":[],"categories_sizes":[],"default_left":[0,0,0,0,0,0,0,0,0,0,0,0,0,0,0,0,0,0,0,0,0,0,0,0,0,0,0],"id":35,"left_children":[1,3,5,7,9,11,13,15,17,19,21,-1,23,-1,25,-1,-1,-1,-1,-1,-1,-1,-1,-1,-1,-1,-1],"loss_changes":[8.8293194E5,8.532875E3,3.94375E2,1.1050469E3,5.7443174E3,8.65E1,1.971875E2,2.3783298E3,5.0432812E2,3.0408271E3,5.3650474E3,0E0,2.0007812E1,0E0,8.16875E1,0E0,0E0,0E0,0E0,0E0,0E0,0E0,0E0,0E0,0E0,0E0,0E0],"parents":[2147483647,0,0,1,1,2,2,3,3,4,4,5,5,6,6,7,7,8,8,9,9,10,10,12,12,14,14],"right_children":[2,4,6,8,10,12,14,16,18,20,22,-1,24,-1,26,-1,-1,-1,-1,-1,-1,-1,-1,-1,-1,-1,-1],"split_conditions":[4E0,3E0,4E0,1E0,3.3E1,9.6E0,8.772904E-2,1.57E1,2.15E1,1.8227272E1,1.48E1,-2.236184E-2,3.07E1,-2.2108978E-2,1E0,-1.5107158E-2,4.5526262E-2,-2.1196485E-2,-9.371986E-3,-1.5745468E-2,1.9124942E-2,3.6968097E-2,-3.5028614E-3,7.833407E-2,7.598508E-2,2.497128E-2,7.16052E-2],"split_indices":[22,24,23,2,29,19,5,21,6,6,30,0,29,0,2,0,0,0,0,0,0,0,0,0,0,0,0],"split_type":[0,0,0,0,0,0,0,0,0,0,0,0,0,0,0,0,0,0,0,0,0,0,0,0,0,0,0],"sum_hessian":[9.1524275E5,7.2121306E5,1.9402966E5,6.024243E5,1.1878877E5,2.3339018E4,1.7069064E5,7.8530024E3,5.945713E5,9.163051E4,2.7158264E4,1.2559613E1,2.3326457E4,3.2284824E1,1.7065836E5,6.7707173E3,1.0822853E3,5.893202E5,5.251147E3,8.786821E4,3.7622952E3,6.0923433E3,2.1065922E4,9.048534E3,1.4277924E4,5.458134E1,1.7060378E5],"tree_param":{"num_deleted":"0","num_feature":"34","num_nodes":"27","size_leaf_vector":"1"}},{"base_weights":[-6.1269165E-3,1.606336E0,-5.549285E-1,1.6202698E0,1.0910261E0,-4.7545448E-1,-5.7624805E-1,7.5993407E-1,1.6276535E0,1.2170999E0,1.9699286E-1,-3.7718883E-1,-5.264837E-1,-5.582041E-1,-5.8261466E-1,1.2655805E-2,3.7445262E-2,5.8647506E-2,6.3929275E-2,6.354933E-2,3.789293E-2,-1.3318289E-2,5.8717113E-2,-1.5838752E-2,-3.4502945E-3,-2.029322E-2,-1.6583782E-2,-1.975271E-2,-2.169818E-2,-2.2146389E-2,-2.0577151E-2],"categories":[],"categories_nodes":[],"categories_segments":[],"categories_sizes":[],"default_left":[0,0,0,0,0,0,0,0,0,0,0,0,0,0,0,0,0,0,0,0,0,0,0,0,0,0,0,0,0,0,0],"id":36,"left_children":[1,3,5,7,9,11,13,15,17,19,21,23,25,27,29,-1,-1,-1,-1,-1,-1,-1,-1,-1,-1,-1,-1,-1,-1,-1,-1],"loss_changes":[8.149986E5,1.6786875E3,1.1641719E3,1.4460625E3,6.9401807E2,7.287383E2,6.2140625E1,1.8674023E2,1.04575E3,5.3963477E2,5.625751E2,5.66166E2,6.681445E1,7.028906E1,7.0625E0,0E0,0E0,0E0,0E0,0E0,0E0,0E0,0E0,0E0,0E0,0E0,0E0,0E0,0E0,0E0,0E0],"parents":[2147483647,0,0,1,1,2,2,3,3,4,4,5,5,6,6,7,7,8,8,9,9,10,10,11,11,12,12,13,13,14,14],"right_children":[2,4,6,8,10,12,14,16,18,20,22,24,26,28,30,-1,-1,-1,-1,-1,-1,-1,-1,-1,-1,-1,-1,-1,-1,-1,-1],"split_conditions":[0E0,1E0,1E0,7.0422534E-3,1.88E1,9.7222224E-2,2E0,-1.7333334E1,-7.2777777E0,1.41E1,1.62E1,2.7643171E1,1.89E1,9.7222224E-2,8.501667E1,1.2655805E-2,3.7445262E-2,5.8647506E-2,6.3929275E-2,6.354933E-2,3.789293E-2,-1.3318289E-2,5.8717113E-2,-1.5838752E-2,-3.4502945E-3,-2.029322E-2,-1.6583782E-2,-1.975271E-2,-2.169818E-2,-2.2146389E-2,-2.0577151E-2],"split_indices":[22,24,22,18,21,18,22,1,1,30,20,1,30,18,1,0,0,0,0,0,0,0,0,0,0,0,0,0,0,0,0],"split_type":[0,0,0,0,0,0,0,0,0,0,0,0,0,0,0,0,0,0,0,0,0,0,0,0,0,0,0,0,0,0,0],"sum_hessian":[9.209829E5,2.3386148E5,6.871214E5,2.2770384E5,6.157643E3,1.4533966E5,5.4178175E5,1.9378737E3,2.2576597E5,5.396536E3,7.611072E2,4.967816E4,9.56615E4,1.413099E5,4.004718E5,6.7098926E2,1.2668844E3,8.998365E4,1.3578233E5,1.7529644E3,3.6435715E3,5.414828E2,2.196244E2,4.361587E4,6.062287E3,8.804074E4,7.62076E3,3.599821E4,1.053117E5,3.9623966E5,4.2321567E3],"tree_param":{"num_deleted":"0","num_feature":"34","num_nodes":"31","size_leaf_vector":"1"}},{"base_weights":[-2.4467974E-3,8.005209E-1,-5.588908E-1,-3.393355E-1,1.6212386E0,-5.0222903E-1,-5.792336E-1,-2.3201042E-1,-4.443715E-1,4.3873098E-1,1.6320273E0,-3.9916813E-1,-5.382609E-1,-5.7158834E-1,-5.833636E-1,1.8966861E-2,-9.509382E-3,-1.7717421E-2,-1.3833218E-2,4.240901E-2,1.1043338E-2,6.331456E-2,5.4618597E-2,-2.0320568E-2,-1.4095847E-2,-2.0770717E-2,-1.7146334E-2,-1.7940776E-2,-2.1754147E-2,-2.1412032E-2,-2.2162333E-2],"categories":[],"categories_nodes":[],"categories_segments":[],"categories_sizes":[],"default_left":[0,0,0,0,0,0,0,0,0,0,0,0,0,0,0,0,0,0,0,0,0,0,0,0,0,0,0,0,0,0,0],"id":37,"left_children":[1,3,5,7,9,11,13,15,17,19,21,23,25,27,29,-1,-1,-1,-1,-1,-1,-1,-1,-1,-1,-1,-1,-1,-1,-1,-1],"loss_changes":[4.1002062E5,3.5139925E5,6.247031E2,1.7725547E3,2.785875E3,5.316953E2,1.2515625E1,1.0434644E3,1.4062598E2,1.9799243E2,1.4635625E3,1.4133936E2,7.891797E1,1.56953125E1,4.453125E-1,0E0,0E0,0E0,0E0,0E0,0E0,0E0,0E0,0E0,0E0,0E0,0E0,0E0,0E0,0E0,0E0],"parents":[2147483647,0,0,1,1,2,2,3,3,4,4,5,5,6,6,7,7,8,8,9,9,10,10,11,11,12,12,13,13,14,14],"right_children":[2,4,6,8,10,12,14,16,18,20,22,24,26,28,30,-1,-1,-1,-1,-1,-1,-1,-1,-1,-1,-1,-1,-1,-1,-1,-1],"split_conditions":[1E0,0E0,2E0,1.04E-1,7.0422534E-3,9.7222224E-2,3E0,7.0422534E-3,1.3E1,4E0,1.85E1,1E0,1.79E1,1.07E1,7.0422534E-3,1.8966861E-2,-9.509382E-3,-1.7717421E-2,-1.3833218E-2,4.240901E-2,1.1043338E-2,6.331456E-2,5.4618597E-2,-2.0320568E-2,-1.4095847E-2,-2.0770717E-2,-1.7146334E-2,-1.7940776E-2,-2.1754147E-2,-2.1412032E-2,-2.2162333E-2],"split_indices":[22,22,22,18,18,18,22,18,0,0,31,23,30,19,18,0,0,0,0,0,0,0,0,0,0,0,0,0,0,0,0],"split_type":[0,0,0,0,0,0,0,0,0,0,0,0,0,0,0,0,0,0,0,0,0,0,0,0,0,0,0,0,0,0,0],"sum_hessian":[9.1766875E5,3.756266E5,5.420421E5,1.5724147E5,2.1838514E5,1.4319667E5,3.9884547E5,7.777371E4,7.946775E4,1.974543E3,2.164106E5,3.7095832E4,1.06100836E5,1.3990461E5,2.5894088E5,1.9028544E3,7.587086E4,6.231002E4,1.7157732E4,3.5353427E2,1.6210087E3,1.8345348E5,3.295711E4,6.3519243E3,3.0743908E4,9.656734E4,9.533487E3,1.584201E3,1.383204E5,1.4102327E3,2.5753064E5],"tree_param":{"num_deleted":"0","num_feature":"34","num_nodes":"31","size_leaf_vector":"1"}},{"base_weights":[3.058952E-3,4.3683538E-1,-5.583283E-1,-4.458102E-1,1.6314229E0,-5.2348495E-1,-5.7732457E-1,-4.752213E-1,-3.2463187E-1,1.4740659E0,1.6825477E0,-4.3532988E-1,-5.4287374E-1,-5.7933676E-1,-5.3543276E-1,-1.9554362E-2,-1.6270237E-2,-1.6463174E-2,-8.380946E-3,6.98476E-2,5.326575E-2,7.101098E-2,6.308003E-2,-1.044814E-2,-1.8079527E-2,-2.0641213E-2,2.1367053E-2,-2.1875229E-2,-2.2142427E-2,-2.0704405E-2,4.8086494E-3],"categories":[],"categories_nodes":[],"categories_segments":[],"categories_sizes":[],"default_left":[0,0,0,0,0,0,0,0,0,0,0,0,0,0,0,0,0,0,0,0,0,0,0,0,0,0,0,0,0,0,0],"id":38,"left_children":[1,3,5,7,9,11,13,15,17,19,21,23,25,27,29,-1,-1,-1,-1,-1,-1,-1,-1,-1,-1,-1,-1,-1,-1,-1,-1],"loss_changes":[2.2158434E5,5.4123156E5,2.624375E2,1.0520391E3,1.7539375E3,2.39125E2,2.1546875E1,4.4073047E2,6.5223486E2,1.3990234E3,6.710625E2,1.6434619E2,6.984766E1,2.9296875E0,7.523804E1,0E0,0E0,0E0,0E0,0E0,0E0,0E0,0E0,0E0,0E0,0E0,0E0,0E0,0E0,0E0,0E0],"parents":[2147483647,0,0,1,1,2,2,3,3,4,4,5,5,6,6,7,7,8,8,9,9,10,10,11,11,12,12,13,13,14,14],"right_children":[2,4,6,8,10,12,14,16,18,20,22,24,26,28,30,-1,-1,-1,-1,-1,-1,-1,-1,-1,-1,-1,-1,-1,-1,-1,-1],"split_conditions":[2E0,1E0,3E0,2.455E1,9.7222224E-2,7.8947365E-2,2.7643171E1,0E0,0E0,1E0,1E0,1.5738161E-1,3.3213333E2,4E0,1.17822984E5,-1.9554362E-2,-1.6270237E-2,-1.6463174E-2,-8.380946E-3,6.98476E-2,5.326575E-2,7.101098E-2,6.308003E-2,-1.044814E-2,-1.8079527E-2,-2.0641213E-2,2.1367053E-2,-2.1875229E-2,-2.2142427E-2,-2.0704405E-2,4.8086494E-3],"split_indices":[22,22,22,25,18,18,1,24,22,23,24,6,10,22,15,0,0,0,0,0,0,0,0,0,0,0,0,0,0,0,0],"split_type":[0,0,0,0,0,0,0,0,0,0,0,0,0,0,0,0,0,0,0,0,0,0,0,0,0,0,0,0,0,0,0],"sum_hessian":[9.0993494E5,5.1330844E5,3.966265E5,2.9519656E5,2.1811188E5,1.3994503E5,2.5668145E5,2.3754203E5,5.765452E4,5.3488535E4,1.6462334E5,2.523154E4,1.1471349E5,2.4491386E5,1.1767598E4,1.2877517E5,1.0876686E5,2.8175092E4,2.947943E4,8.787754E3,4.470078E4,1.7210205E4,1.4741314E5,5.105742E3,2.0125797E4,1.1465658E5,5.691528E1,1.2570022E5,1.1921363E5,1.1598501E4,1.6909688E2],"tree_param":{"num_deleted":"0","num_feature":"34","num_nodes":"31","size_leaf_vector":"1"}},{"base_weights":[2.7994995E-3,-4.107617E-1,4.125351E-1,-4.8767206E-1,-2.5237265E-1,1.4623685E0,-5.042225E-1,-4.9322003E-1,7.7348344E-2,-3.478057E-2,-3.469572E-1,1.0920475E0,1.5872036E0,-5.147265E-1,1.4738722E-1,-1.5277803E-3,-1.8978596E-2,-5.0691394E-3,1.2017232E-2,1.7882852E-2,-3.4564324E-3,-1.4338579E-2,-4.0281233E-3,-3.1164812E-3,4.3422945E-2,6.425568E-2,5.1567405E-2,-1.1762658E-2,-2.032495E-2,2.654891E-2,-1.8209053E-2],"categories":[],"categories_nodes":[],"categories_segments":[],"categories_sizes":[],"default_left":[0,0,0,0,0,0,0,0,0,0,0,0,0,0,0,0,0,0,0,0,0,0,0,0,0,0,0,0,0,0,0],"id":39,"left_children":[1,3,5,7,9,11,13,15,17,19,21,23,25,27,29,-1,-1,-1,-1,-1,-1,-1,-1,-1,-1,-1,-1,-1,-1,-1,-1],"loss_changes":[1.5428283E5,5.519875E3,4.4018228E5,9.561406E2,3.048245E3,9.8558125E3,1.6711484E3,8.800703E2,1.4947043E2,1.2754951E3,7.594375E2,3.2283867E3,3.8235E3,1.0036211E3,1.3392441E3,0E0,0E0,0E0,0E0,0E0,0E0,0E0,0E0,0E0,0E0,0E0,0E0,0E0,0E0,0E0,0E0],"parents":[2147483647,0,0,1,1,2,2,3,3,4,4,5,5,6,6,7,7,8,8,9,9,10,10,11,11,12,12,13,13,14,14],"right_children":[2,4,6,8,10,12,14,16,18,20,22,24,26,28,30,-1,-1,-1,-1,-1,-1,-1,-1,-1,-1,-1,-1,-1,-1,-1,-1],"split_conditions":[2E0,1E0,3E0,2E0,9.876543E-2,9.876543E-2,5.4177776E1,1E0,1.56E1,-7.3494446E1,1.3285714E1,1E0,6.3446133E4,7.8947365E-2,2.264E2,-1.5277803E-3,-1.8978596E-2,-5.0691394E-3,1.2017232E-2,1.7882852E-2,-3.4564324E-3,-1.4338579E-2,-4.0281233E-3,-3.1164812E-3,4.3422945E-2,6.425568E-2,5.1567405E-2,-1.1762658E-2,-2.032495E-2,2.654891E-2,-1.8209053E-2],"split_indices":[23,23,23,24,18,18,1,2,21,1,6,2,15,18,8,0,0,0,0,0,0,0,0,0,0,0,0,0,0,0,0],"split_type":[0,0,0,0,0,0,0,0,0,0,0,0,0,0,0,0,0,0,0,0,0,0,0,0,0,0,0,0,0,0,0],"sum_hessian":[9.104872E5,4.5312825E5,4.5735897E5,3.050176E5,1.4811066E5,2.1320506E5,2.441539E5,3.0205175E5,2.9658184E3,4.4875297E4,1.0323536E5,5.375239E4,1.5945267E5,2.4028061E5,3.8733032E3,4.228661E3,2.978231E5,1.5760275E3,1.3897908E3,4.490286E3,4.038501E4,9.1621664E4,1.1613692E4,2.2441455E3,5.1508246E4,1.0958681E5,4.9865863E4,2.1714299E4,2.1856631E5,2.0602437E3,1.8130596E3],"tree_param":{"num_deleted":"0","num_feature":"34","num_nodes":"31","size_leaf_vector":"1"}},{"base_weights":[2.3049845E-3,-4.838823E-1,8.3493006E-1,-5.260149E-1,-3.5062858E-1,1.639903E0,-5.448185E-1,-1.3577949E-1,-5.3096217E-1,-1.0226621E-1,-4.4173336E-1,1.9447439E0,1.606052E0,3.9453584E-1,-5.467706E-1,2.7236197E-2,-1.2966554E-2,-2.093293E-2,-1.8518634E-2,-5.301259E-3,2.415901E-2,-1.9215181E-2,-1.1529878E-2,4.2864308E-2,7.497327E-2,5.6868095E-2,6.479854E-2,-2.2621103E-2,6.9543704E-2,3.343877E-2,-2.0810174E-2],"categories":[],"categories_nodes":[],"categories_segments":[],"categories_sizes":[],"default_left":[0,0,0,0,0,0,0,0,0,0,0,0,0,0,0,0,0,0,0,0,0,0,0,0,0,0,0,0,0,0,0],"id":40,"left_children":[1,3,5,7,9,11,13,15,17,19,21,23,25,27,29,-1,-1,-1,-1,-1,-1,-1,-1,-1,-1,-1,-1,-1,-1,-1,-1],"loss_changes":[3.6883022E5,3.2294688E3,3.7305728E5,8.4372656E2,3.1267285E3,2.188125E3,2.269961E2,9.5944604E2,3.7735156E2,1.021354E3,8.961289E2,5.026953E2,2.076125E3,3.6553494E2,1.9428906E2,0E0,0E0,0E0,0E0,0E0,0E0,0E0,0E0,0E0,0E0,0E0,0E0,0E0,0E0,0E0,0E0],"parents":[2147483647,0,0,1,1,2,2,3,3,4,4,5,5,6,6,7,7,8,8,9,9,10,10,11,11,12,12,13,13,14,14],"right_children":[2,4,6,8,10,12,14,16,18,20,22,24,26,28,30,-1,-1,-1,-1,-1,-1,-1,-1,-1,-1,-1,-1,-1,-1,-1,-1],"split_conditions":[3E0,2E0,4E0,1E0,9.876543E-2,3E0,1E0,2.8133333E1,1E0,9.463209E4,6.3446133E4,1E0,1.3043478E-1,-5E-1,9.9E0,2.7236197E-2,-1.2966554E-2,-2.093293E-2,-1.8518634E-2,-5.301259E-3,2.415901E-2,-1.9215181E-2,-1.1529878E-2,4.2864308E-2,7.497327E-2,5.6868095E-2,6.479854E-2,-2.2621103E-2,6.9543704E-2,3.343877E-2,-2.0810174E-2],"split_indices":[22,23,22,2,18,23,2,11,23,15,15,2,18,13,20,0,0,0,0,0,0,0,0,0,0,0,0,0,0,0,0],"split_type":[0,0,0,0,0,0,0,0,0,0,0,0,0,0,0,0,0,0,0,0,0,0,0,0,0,0,0,0,0,0,0],"sum_hessian":[9.1111494E5,5.7522756E5,3.3588734E5,4.3704144E5,1.3818616E5,2.1212775E5,1.2375962E5,5.4713643E3,4.3157006E5,3.708599E4,1.01100164E5,2.1199688E4,1.9092806E5,2.5652942E2,1.23503086E5,1.0626425E3,4.4087217E3,2.9480888E5,1.367612E5,3.5302656E4,1.7833346E3,6.904692E4,3.205324E4,7.298522E2,2.0469836E4,9.136444E4,9.956362E4,1.5195456E2,1.0457486E2,9.50759E1,1.2340801E5],"tree_param":{"num_deleted":"0","num_feature":"34","num_nodes":"31","size_leaf_vector":"1"}},{"base_weights":[4.437587E-3,-4.9796718E-1,1.7746278E0,-5.490613E-1,-2.7294925E-1,1.895814E0,1.7586697E0,-5.5308807E-1,-8.968438E-2,-3.9011106E-1,1.0979615E-1,1.8992184E0,9.7240996E-1,-2.2013653E-2,1.7591382E0,-7.4089686E-3,-2.1184357E-2,6.9033735E-2,-1.9818487E-2,-1.6172031E-2,1.6851582E-2,1.3212865E-2,-1.2744325E-2,-2.2054229E-2,7.2174326E-2,-2.25833E-2,7.290183E-2,2.0097332E-2,6.683436E-2],"categories":[],"categories_nodes":[],"categories_segments":[],"categories_sizes":[],"default_left":[0,0,0,0,0,0,0,0,0,0,0,0,0,0,0,0,0,0,0,0,0,0,0,0,0,0,0,0,0],"id":41,"left_children":[1,3,5,7,9,11,13,15,17,19,21,23,25,-1,27,-1,-1,-1,-1,-1,-1,-1,-1,-1,-1,-1,-1,-1,-1],"loss_changes":[8.093483E5,8.1497656E3,3.88125E2,1.0685781E3,5.882256E3,7.305469E1,1.950625E2,9.503594E2,4.137077E3,2.9854111E3,3.2591824E3,5.3765625E1,1.2877304E2,0E0,9.125E1,0E0,0E0,0E0,0E0,0E0,0E0,0E0,0E0,0E0,0E0,0E0,0E0,0E0,0E0],"parents":[2147483647,0,0,1,1,2,2,3,3,4,4,5,5,6,6,7,7,8,8,9,9,10,10,11,11,12,12,14,14],"right_children":[2,4,6,8,10,12,14,16,18,20,22,24,26,-1,28,-1,-1,-1,-1,-1,-1,-1,-1,-1,-1,-1,-1,-1,-1],"split_conditions":[4E0,3E0,4E0,2.15E1,3.3E1,5.4177776E1,8.772904E-2,7.0422534E-3,1.2E1,1.755E1,3.31E1,9.6E0,7.7833336E1,-2.2013653E-2,7.0422534E-3,-7.4089686E-3,-2.1184357E-2,6.9033735E-2,-1.9818487E-2,-1.6172031E-2,1.6851582E-2,1.3212865E-2,-1.2744325E-2,-2.2054229E-2,7.2174326E-2,-2.25833E-2,7.290183E-2,2.0097332E-2,6.683436E-2],"split_indices":[22,23,23,6,28,1,5,18,32,5,7,19,1,0,18,0,0,0,0,0,0,0,0,0,0,0,0,0,0],"split_type":[0,0,0,0,0,0,0,0,0,0,0,0,0,0,0,0,0,0,0,0,0,0,0,0,0,0,0,0,0],"sum_hessian":[9.100421E5,7.088584E5,2.0118373E5,5.7768494E5,1.3117344E5,2.340576E4,1.7777797E5,5.7266506E5,5.0198745E3,1.00430695E5,3.0742744E4,2.3319479E4,8.6281136E1,3.554506E1,1.7774242E5,7.31941E3,5.653457E5,9.2705383E2,4.0928208E3,9.6312484E4,4.118217E3,2.003329E4,1.0709456E4,8.6202965E0,2.331086E4,3.253961E1,5.3741524E1,6.057214E1,1.7768186E5],"tree_param":{"num_deleted":"0","num_feature":"34","num_nodes":"29","size_leaf_vector":"1"}},{"base_weights":[-6.021145E-3,1.5110965E0,-5.5179834E-1,1.5593737E0,1.3807594E0,-4.707284E-1,-5.736188E-1,1.4876153E0,1.5969921E0,1.4140304E0,7.7679586E-1,-3.7154263E-1,-5.2247566E-1,-5.550284E-1,-5.801702E-1,5.721556E-2,3.8212895E-2,6.1351407E-2,5.6822967E-2,4.8704054E-2,5.839231E-2,1.6217664E-2,5.8233466E-2,-1.5624495E-2,-3.3876614E-3,-2.0147879E-2,-1.6348483E-2,-2.116978E-2,-1.22207375E-2,-2.205302E-2,-2.0537006E-2],"categories":[],"categories_nodes":[],"categories_segments":[],"categories_sizes":[],"default_left":[0,0,0,0,0,0,0,0,0,0,0,0,0,0,0,0,0,0,0,0,0,0,0,0,0,0,0,0,0,0,0],"id":42,"left_children":[1,3,5,7,9,11,13,15,17,19,21,23,25,27,29,-1,-1,-1,-1,-1,-1,-1,-1,-1,-1,-1,-1,-1,-1,-1,-1],"loss_changes":[7.5833756E5,1.524E3,1.1914375E3,4.7659375E2,1.3157812E3,7.331113E2,6.453125E1,5.474219E2,2.1275E2,1.0079297E3,9.0476196E2,5.5043604E2,6.872656E1,7.450781E1,6.46875E0,0E0,0E0,0E0,0E0,0E0,0E0,0E0,0E0,0E0,0E0,0E0,0E0,0E0,0E0,0E0,0E0],"parents":[2147483647,0,0,1,1,2,2,3,3,4,4,5,5,6,6,7,7,8,8,9,9,10,10,11,11,12,12,13,13,14,14],"right_children":[2,4,6,8,10,12,14,16,18,20,22,24,26,28,30,-1,-1,-1,-1,-1,-1,-1,-1,-1,-1,-1,-1,-1,-1,-1,-1],"split_conditions":[0E0,1.64E1,1E0,1.04E-1,1E0,9.7222224E-2,2E0,1.88E1,1.94E1,-4.7222223E0,0E0,2.7643171E1,1.89E1,9.797222E1,8.501667E1,5.721556E-2,3.8212895E-2,6.1351407E-2,5.6822967E-2,4.8704054E-2,5.839231E-2,1.6217664E-2,5.8233466E-2,-1.5624495E-2,-3.3876614E-3,-2.0147879E-2,-1.6348483E-2,-2.116978E-2,-1.22207375E-2,-2.205302E-2,-2.0537006E-2],"split_indices":[22,30,22,18,24,18,22,21,21,1,23,1,30,1,1,0,0,0,0,0,0,0,0,0,0,0,0,0,0,0,0],"split_type":[0,0,0,0,0,0,0,0,0,0,0,0,0,0,0,0,0,0,0,0,0,0,0,0,0,0,0,0,0,0,0],"sum_hessian":[9.15857E5,2.4230688E5,6.735501E5,1.7681198E5,6.5494887E4,1.4284458E5,5.3070556E5,6.0815766E4,1.1599623E5,6.207492E4,3.4199636E3,4.897496E4,9.3869625E4,1.3829578E5,3.9240978E5,5.8541227E4,2.2745386E3,9.827099E4,1.7725234E4,3.0002156E4,3.2072768E4,2.3386777E3,1.0812859E3,4.2923605E4,6.0513535E3,8.6398266E4,7.4713574E3,1.369388E5,1.3569867E3,3.8825172E5,4.1580366E3],"tree_param":{"num_deleted":"0","num_feature":"34","num_nodes":"31","size_leaf_vector":"1"}},{"base_weights":[-2.5076687E-3,7.6795155E-1,-5.5589324E-1,-3.3468056E-1,1.5248554E0,-4.9820352E-1,-5.766674E-1,-2.259403E-1,-4.4163606E-1,3.994826E-1,1.5350395E0,-3.955478E-1,-5.343483E-1,-5.69135E-1,-5.80749E-1,-4.2914012E-3,-1.3332446E-2,-2.0230504E-2,-1.6044747E-2,4.4604823E-2,1.0663311E-2,6.9266826E-2,5.753122E-2,-2.0153467E-2,-1.3958306E-2,-2.0628132E-2,-1.698026E-2,-1.7831845E-2,-2.1661071E-2,-2.1289015E-2,-2.2063136E-2],"categories":[],"categories_nodes":[],"categories_segments":[],"categories_sizes":[],"default_left":[0,0,0,0,0,0,0,0,0,0,0,0,0,0,0,0,0,0,0,0,0,0,0,0,0,0,0,0,0,0,0],"id":43,"left_children":[1,3,5,7,9,11,13,15,17,19,21,23,25,27,29,-1,-1,-1,-1,-1,-1,-1,-1,-1,-1,-1,-1,-1,-1,-1,-1],"loss_changes":[3.894745E5,3.1868656E5,6.370625E2,1.8076562E3,2.5948125E3,5.2221875E2,1.19140625E1,1.0888018E3,1.3697363E2,1.8678125E2,1.320625E3,1.3886426E2,7.928516E1,1.5515625E1,4.765625E-1,0E0,0E0,0E0,0E0,0E0,0E0,0E0,0E0,0E0,0E0,0E0,0E0,0E0,0E0,0E0,0E0],"parents":[2147483647,0,0,1,1,2,2,3,3,4,4,5,5,6,6,7,7,8,8,9,9,10,10,11,11,12,12,13,13,14,14],"right_children":[2,4,6,8,10,12,14,16,18,20,22,24,26,28,30,-1,-1,-1,-1,-1,-1,-1,-1,-1,-1,-1,-1,-1,-1,-1,-1],"split_conditions":[1E0,0E0,2E0,1.04E-1,1E0,9.7222224E-2,3E0,-2.5944445E0,2E0,3E0,0E0,1E0,1.79E1,1.07E1,1E0,-4.2914012E-3,-1.3332446E-2,-2.0230504E-2,-1.6044747E-2,4.4604823E-2,1.0663311E-2,6.9266826E-2,5.753122E-2,-2.0153467E-2,-1.3958306E-2,-2.0628132E-2,-1.698026E-2,-1.7831845E-2,-2.1661071E-2,-2.1289015E-2,-2.2063136E-2],"split_indices":[22,22,22,18,2,18,22,1,0,0,23,23,30,19,2,0,0,0,0,0,0,0,0,0,0,0,0,0,0,0,0],"split_type":[0,0,0,0,0,0,0,0,0,0,0,0,0,0,0,0,0,0,0,0,0,0,0,0,0,0,0,0,0,0,0],"sum_hessian":[9.134846E5,3.8184925E5,5.316354E5,1.5542764E5,2.2642161E5,1.4075814E5,3.9087722E5,7.707123E4,7.835641E4,2.030748E3,2.2439088E5,3.665548E4,1.0410266E5,1.3738189E5,2.5349533E5,4.049562E4,3.657561E4,1.366776E4,6.4688645E4,2.6952664E2,1.7612214E3,1.4819759E4,2.0957111E5,6.306633E3,3.034885E4,9.463691E4,9.46575E3,1.5532454E3,1.3582864E5,1.3769204E3,2.521184E5],"tree_param":{"num_deleted":"0","num_feature":"34","num_nodes":"31","size_leaf_vector":"1"}},{"base_weights":[2.7183667E-3,4.2428386E-1,-5.556722E-1,-4.402843E-1,1.5326735E0,-5.2057546E-1,-5.7483417E-1,-3.7463892E-1,-4.9538875E-1,5.1898193E-1,1.5405287E0,-4.3328518E-1,-5.399608E-1,-4.6155906E-1,-5.754684E-1,-1.7380241E-2,-1.0525337E-2,-2.0368775E-2,-1.7274044E-2,-7.9363637E-4,2.534054E-2,5.9825253E-2,5.230483E-2,-1.0474537E-2,-1.7982809E-2,-2.0534698E-2,6.05428E-3,4.830069E-3,-2.1103198E-2,-2.0811222E-2,-2.189978E-2],"categories":[],"categories_nodes":[],"categories_segments":[],"categories_sizes":[],"default_left":[0,0,0,0,0,0,0,0,0,0,0,0,0,0,0,0,0,0,0,0,0,0,0,0,0,0,0,0,0,0,0],"id":44,"left_children":[1,3,5,7,9,11,13,15,17,19,21,23,25,27,29,-1,-1,-1,-1,-1,-1,-1,-1,-1,-1,-1,-1,-1,-1,-1,-1],"loss_changes":[2.1344405E5,4.951129E5,2.622422E2,1.0499219E3,1.8025625E3,2.3303906E2,1.8046875E1,1.0714551E3,2.618047E2,1.3929565E2,1.2665625E3,1.5829883E2,5.1960938E1,7.787045E1,7.4609375E0,0E0,0E0,0E0,0E0,0E0,0E0,0E0,0E0,0E0,0E0,0E0,0E0,0E0,0E0,0E0,0E0],"parents":[2147483647,0,0,1,1,2,2,3,3,4,4,5,5,6,6,7,7,8,8,9,9,10,10,11,11,12,12,13,13,14,14],"right_children":[2,4,6,8,10,12,14,16,18,20,22,24,26,28,30,-1,-1,-1,-1,-1,-1,-1,-1,-1,-1,-1,-1,-1,-1,-1,-1],"split_conditions":[2E0,1E0,3E0,1.04E-1,1E0,7.8947365E-2,1E0,0E0,0E0,3.04E1,2.475E1,1.5738161E-1,3.154E2,3.06E1,1.2462687E-1,-1.7380241E-2,-1.0525337E-2,